SVM-light Version V6.02
0 # kernel type
3 # kernel parameter -d 
1 # kernel parameter -g 
1 # kernel parameter -s 
1 # kernel parameter -r 
empty# kernel parameter -u 
3014 # highest feature index 
20 # number of training documents 
19 # number of support vectors plus 1 
1.0955156 # threshold b, each following line is a SV (starting with alpha*y)
-5.7074540931817353741489773355511e-05 1:0 2:0 3:0 4:0 5:0 6:0 7:0 8:0 9:0 10:0 11:0 12:0 13:0 14:0 15:0 16:0 17:0 18:0 19:0 20:0 21:0 22:0 23:0 24:0 25:0 26:0 27:0 28:0 29:0 30:0 31:0 32:0 33:0 34:0 35:0 36:0 37:0 38:0 39:0 40:0 41:0 42:0 43:0 44:0 45:0 46:0 47:0 48:0 49:0 50:0 51:0 52:0 53:0 54:0 55:0 56:0 57:0 58:0 59:0 60:0 61:0 62:0 63:0 64:0 65:0 66:0 67:0 68:0 69:0 70:0 71:0 72:0 73:0 74:0 75:0 76:0 77:0 78:0 79:0 80:0 81:0 82:0 83:0 84:0 85:0 86:0 87:0 88:0 89:0 90:0 91:0 92:0 93:0 94:0 95:0 96:0 97:0 98:0 99:0 100:0 101:0 102:0 103:0 104:0 105:0 106:0 107:0 108:0 109:0 110:0 111:0 112:0 113:0 114:0 115:0 116:0 117:0 118:0 119:0 120:0 121:0 122:0 123:0 124:0 125:0 126:0 127:0 128:0 129:0 130:0 131:0 132:0 133:0 134:0 135:0 136:0 137:0 138:0 139:0 140:0 141:0 142:0 143:0 144:0 145:0 146:0 147:0 148:0 149:0 150:0 151:0 152:0 153:0 154:0 155:0 156:0 157:0 158:0 159:0 160:0 161:0 162:0 163:0 164:0 165:0 166:0 167:0 168:0 169:0 170:0 171:0 172:0 173:0 174:0 175:0 176:0 177:0 178:0 179:0 180:0 181:0 182:0 183:0 184:0 185:0 186:0 187:0 188:0 189:0 190:0 191:0 192:0 193:0 194:0 195:0 196:0 197:0 198:0 199:0 200:0 201:0 202:0 203:0 204:0 205:0 206:0 207:0 208:0 209:0 210:0 211:0 212:0 213:0 214:0 215:0 216:0 217:0 218:0 219:0 220:0 221:0 222:0 223:0 224:0 225:0 226:0 227:0 228:0 229:0 230:0 231:0 232:0 233:0 234:0 235:0 236:0 237:0 238:0 239:0 240:0 241:0 242:0 243:0 244:0 245:0 246:0 247:0 248:0 249:0 250:0 251:0 252:0 253:0 254:0 255:0 256:0 257:0 258:0 259:0 260:0 261:0 262:0 263:0 264:0 265:0 266:0 267:0 268:0 269:0 270:0 271:0 272:0 273:0 274:0 275:0 276:0 277:0 278:0 279:0 280:0 281:0 282:0 283:0 284:0 285:0 286:0 287:0 288:0 289:0 290:0 291:0 292:0 293:0 294:0 295:0 296:0 297:0 298:0 299:0 300:0 301:0 302:0 303:0 304:0 305:0 306:0 307:0 308:0 309:0 310:0 311:0 312:0 313:2 314:2 315:2 316:2 317:0 318:0 319:0 320:0 321:0 322:0 323:2 324:2 325:2 326:2 327:2 328:2 329:2 330:2 331:2 332:2 333:2 334:2 335:2 336:2 337:0 338:0 339:0 340:2 341:2 342:2 343:2 344:2 345:2 346:2 347:2 348:2 349:2 350:2 351:2 352:2 353:2 354:2 355:2 356:2 357:2 358:2 359:2 360:2 361:2 362:2 363:2 364:2 365:2 366:2 367:0 368:0 369:0 370:0 371:0 372:0 373:0 374:0 375:2 376:2 377:4 378:4 379:4 380:4 381:4 382:4 383:4 384:4 385:4 386:0 387:2 388:2 389:2 390:0 391:2 392:2 393:2 394:2 395:2 396:2 397:2 398:2 399:2 400:2 401:2 402:2 403:2 404:2 405:2 406:2 407:2 408:2 409:2 410:2 411:4 412:4 413:4 414:4 415:4 416:4 417:4 418:4 419:4 420:4 421:4 422:2 423:2 424:4 425:4 426:4 427:4 428:4 429:4 430:4 431:4 432:4 433:4 434:4 435:4 436:4 437:4 438:4 439:4 440:4 441:4 442:4 443:4 444:2 445:2 446:2 447:2 448:2 449:2 450:2 451:2 452:2 453:4 454:4 455:4 456:4 457:4 458:4 459:4 460:4 461:4 462:4 463:4 464:4 465:4 466:4 467:4 468:4 469:4 470:4 471:4 472:4 473:4 474:4 475:4 476:4 477:4 478:4 479:4 480:2 481:2 482:2 483:2 484:2 485:2 486:2 487:2 488:4 489:4 490:4 491:2 492:2 493:4 494:4 495:4 496:4 497:4 498:4 499:4 500:4 501:4 502:4 503:4 504:4 505:4 506:4 507:4 508:4 509:4 510:4 511:4 512:4 513:4 514:4 515:2 516:2 517:2 518:2 519:2 520:2 521:2 522:2 523:2 524:2 525:2 526:2 527:2 528:2 529:2 530:2 531:4 532:4 533:4 534:4 535:4 536:4 537:4 538:4 539:4 540:4 541:4 542:4 543:4 544:4 545:4 546:4 547:4 548:4 549:4 550:4 551:2 552:2 553:4 554:4 555:4 556:4 557:4 558:4 559:4 560:4 561:4 562:4 563:4 564:4 565:4 566:4 567:4 568:0 569:4 570:4 571:4 572:4 573:4 574:4 575:4 576:4 577:4 578:4 579:4 580:4 581:4 582:4 583:4 584:4 585:4 586:4 587:4 588:4 589:4 590:4 591:4 592:2 593:2 594:2 595:2 596:2 597:2 598:2 599:2 600:2 601:2 602:2 603:2 604:2 605:2 606:2 607:2 608:2 609:2 610:2 611:2 612:0 613:2 614:2 615:2 616:0 617:0 618:0 619:0 620:0 621:0 622:0 623:0 624:0 625:0 626:0 627:0 628:0 629:0 630:0 631:0 632:0 633:2 634:2 635:2 636:2 637:2 638:2 639:0 640:0 641:0 642:0 643:0 644:2 645:2 646:2 647:2 648:2 649:2 650:2 651:0 652:2 653:0 654:0 655:0 656:0 657:0 658:0 659:0 660:0 661:0 662:0 663:0 664:0 665:0 666:0 667:0 668:0 669:0 670:0 671:0 672:0 673:0 674:0 675:0 676:0 677:0 678:0 679:0 680:0 681:0 682:0 683:0 684:0 685:0 686:0 687:0 688:2 689:2 690:2 691:2 692:2 693:2 694:2 695:2 696:2 697:2 698:2 699:2 700:2 701:2 702:2 703:2 704:4 705:4 706:4 707:4 708:4 709:4 710:4 711:4 712:4 713:4 714:4 715:4 716:4 717:4 718:4 719:4 720:2 721:2 722:2 723:4 724:4 725:4 726:4 727:4 728:4 729:4 730:4 731:4 732:4 733:4 734:2 735:2 736:2 737:2 738:2 739:2 740:4 741:4 742:4 743:4 744:4 745:4 746:4 747:4 748:4 749:4 750:4 751:4 752:4 753:4 754:4 755:4 756:4 757:4 758:4 759:4 760:4 761:4 762:4 763:4 764:4 765:4 766:4 767:4 768:4 769:4 770:4 771:4 772:4 773:4 774:4 775:4 776:4 777:4 778:4 779:4 780:4 781:4 782:4 783:4 784:4 785:4 786:4 787:4 788:4 789:4 790:4 791:4 792:4 793:4 794:4 795:4 796:4 797:4 798:4 799:4 800:4 801:4 802:4 803:4 804:4 805:4 806:4 807:2 808:2 809:2 810:2 811:2 812:2 813:2 814:2 815:2 816:2 817:2 818:2 819:2 820:2 821:2 822:2 823:2 824:2 825:2 826:2 827:2 828:2 829:2 830:2 831:2 832:4 833:4 834:4 835:2 836:2 837:2 838:2 839:2 840:2 841:4 842:4 843:4 844:2 845:2 846:2 847:2 848:2 849:2 850:2 851:2 852:2 853:2 854:2 855:2 856:2 857:2 858:2 859:2 860:2 861:2 862:2 863:2 864:2 865:2 866:2 867:2 868:2 869:2 870:2 871:2 872:2 873:2 874:2 875:2 876:4 877:4 878:4 879:4 880:4 881:4 882:4 883:4 884:4 885:4 886:2 887:4 888:4 889:4 890:4 891:4 892:4 893:0 894:0 895:0 896:0 897:0 898:0 899:0 900:0 901:4 902:2 903:2 904:2 905:2 906:4 907:4 908:4 909:4 910:2 911:2 912:2 913:2 914:4 915:4 916:0 917:4 918:4 919:4 920:4 921:4 922:4 923:4 924:4 925:4 926:4 927:2 928:2 929:2 930:4 931:4 932:4 933:0 934:0 935:0 936:0 937:0 938:0 939:0 940:0 941:0 942:0 943:0 944:0 945:0 946:0 947:0 948:0 949:0 950:0 951:0 952:4 953:4 954:4 955:4 956:4 957:4 958:4 959:4 960:4 961:4 962:4 963:4 964:4 965:4 966:4 967:4 968:4 969:2 970:2 971:2 972:2 973:2 974:4 975:4 976:4 977:4 978:4 979:4 980:4 981:4 982:4 983:4 984:4 985:4 986:4 987:4 988:4 989:4 990:4 991:4 992:0 993:4 994:4 995:4 996:4 997:4 998:4 999:4 1000:4 1001:4 1002:4 1003:2 1004:2 1005:4 1006:4 1007:4 1008:4 1009:4 1010:2 1011:2 1012:2 1013:4 1014:4 1015:4 1016:4 1017:4 1018:4 1019:4 1020:4 1021:4 1022:4 1023:4 1024:4 1025:4 1026:4 1027:4 1028:4 1029:4 1030:4 1031:4 1032:4 1033:2 1034:2 1035:2 1036:2 1037:2 1038:2 1039:4 1040:4 1041:4 1042:4 1043:4 1044:4 1045:4 1046:4 1047:4 1048:4 1049:4 1050:4 1051:4 1052:4 1053:4 1054:4 1055:4 1056:4 1057:4 1058:4 1059:4 1060:4 1061:4 1062:4 1063:4 1064:4 1065:4 1066:4 1067:4 1068:0 1069:4 1070:4 1071:4 1072:4 1073:4 1074:4 1075:4 1076:4 1077:4 1078:4 1079:4 1080:4 1081:4 1082:4 1083:4 1084:4 1085:4 1086:4 1087:4 1088:0 1089:4 1090:4 1091:4 1092:4 1093:4 1094:4 1095:4 1096:4 1097:0 1098:4 1099:4 1100:4 1101:4 1102:2 1103:2 1104:2 1105:2 1106:2 1107:2 1108:2 1109:0 1110:0 1111:0 1112:0 1113:2 1114:2 1115:0 1116:0 1117:0 1118:0 1119:0 1120:0 1121:0 1122:0 1123:0 1124:0 1125:2 1126:2 1127:2 1128:2 1129:2 1130:2 1131:4 1132:4 1133:4 1134:4 1135:4 1136:4 1137:4 1138:4 1139:4 1140:4 1141:4 1142:4 1143:4 1144:4 1145:4 1146:4 1147:2 1148:2 1149:2 1150:4 1151:4 1152:4 1153:4 1154:4 1155:4 1156:4 1157:4 1158:4 1159:4 1160:4 1161:2 1162:2 1163:2 1164:2 1165:2 1166:2 1167:2 1168:2 1169:4 1170:4 1171:4 1172:4 1173:4 1174:4 1175:4 1176:4 1177:4 1178:4 1179:4 1180:4 1181:4 1182:4 1183:4 1184:4 1185:4 1186:4 1187:4 1188:4 1189:4 1190:4 1191:4 1192:4 1193:4 1194:4 1195:4 1196:4 1197:4 1198:4 1199:4 1200:4 1201:4 1202:4 1203:4 1204:4 1205:0 1206:0 1207:4 1208:4 1209:4 1210:4 1211:4 1212:2 1213:4 1214:4 1215:4 1216:4 1217:4 1218:4 1219:4 1220:4 1221:4 1222:4 1223:4 1224:2 1225:2 1226:2 1227:4 1228:4 1229:2 1230:0 1231:2 1232:2 1233:2 1234:2 1235:2 1236:0 1237:0 1238:4 1239:0 1240:0 1241:0 1242:0 1243:0 1244:0 1245:0 1246:0 1247:0 1248:0 1249:0 1250:4 1251:2 1252:2 1253:2 1254:2 1255:2 1256:2 1257:2 1258:2 1259:2 1260:2 1261:2 1262:2 1263:2 1264:2 1265:2 1266:2 1267:2 1268:2 1269:2 1270:0 1271:2 1272:2 1273:2 1274:2 1275:2 1276:2 1277:2 1278:2 1279:2 1280:2 1281:2 1282:2 1283:2 1284:2 1285:2 1286:4 1287:4 1288:4 1289:4 1290:2 1291:2 1292:2 1293:2 1294:2 1295:2 1296:2 1297:2 1298:2 1299:0 1300:0 1301:0 1302:0 1303:0 1304:0 1305:0 1306:0 1307:0 1308:0 1309:0 1310:0 1311:0 1312:0 1313:0 1314:0 1315:0 1316:0 1317:0 1318:0 1319:0 1320:0 1321:0 1322:0 1323:0 1324:0 1325:0 1326:0 1327:0 1328:0 1329:0 1330:0 1331:0 1332:2 1333:2 1334:2 1335:2 1336:2 1337:2 1338:2 1339:2 1340:2 1341:2 1342:0 1343:0 1344:0 1345:0 1346:0 1347:0 1348:0 1349:0 1350:0 1351:0 1352:0 1353:0 1354:0 1355:0 1356:0 1357:0 1358:0 1359:0 1360:2 1361:0 1362:0 1363:2 1364:0 1365:2 1366:2 1367:4 1368:4 1369:4 1370:4 1371:4 1372:4 1373:4 1374:4 1375:4 1376:4 1377:2 1378:2 1379:2 1380:4 1381:4 1382:4 1383:4 1384:4 1385:4 1386:4 1387:4 1388:4 1389:4 1390:4 1391:4 1392:4 1393:4 1394:4 1395:4 1396:4 1397:4 1398:4 1399:4 1400:2 1401:2 1402:2 1403:2 1404:4 1405:4 1406:4 1407:4 1408:4 1409:4 1410:0 1411:0 1412:0 1413:0 1414:0 1415:0 1416:0 1417:0 1418:0 1419:0 1420:0 1421:0 1422:0 1423:0 1424:0 1425:4 1426:4 1427:4 1428:4 1429:4 1430:4 1431:4 1432:4 1433:4 1434:0 1435:0 1436:0 1437:4 1438:4 1439:4 1440:4 1441:4 1442:4 1443:4 1444:4 1445:4 1446:4 1447:4 1448:4 1449:4 1450:4 1451:4 1452:4 1453:4 1454:4 1455:4 1456:2 1457:2 1458:2 1459:2 1460:4 1461:4 1462:4 1463:2 1464:2 1465:4 1466:4 1467:4 1468:4 1469:4 1470:4 1471:4 1472:4 1473:4 1474:4 1475:4 1476:4 1477:4 1478:4 1479:0 1480:4 1481:0 1482:4 1483:4 1484:4 1485:2 1486:2 1487:2 1488:2 1489:2 1490:0 1491:0 1492:0 1493:0 1494:2 1495:2 1496:4 1497:4 1498:4 1499:4 1500:4 1501:4 1502:4 1503:4 1504:4 1505:4 1506:4 1507:4 1508:4 1509:4 1510:4 1511:4 1512:4 1513:4 1514:4 1515:4 1516:4 1517:4 1518:0 1519:0 1520:0 1521:0 1522:0 1523:0 1524:0 1525:0 1526:0 1527:0 1528:0 1529:0 1530:0 1531:0 1532:0 1533:0 1534:0 1535:0 1536:0 1537:4 1538:4 1539:4 1540:4 1541:4 1542:4 1543:4 1544:4 1545:4 1546:4 1547:4 1548:4 1549:4 1550:4 1551:4 1552:4 1553:4 1554:4 1555:4 1556:4 1557:4 1558:4 1559:4 1560:0 1561:4 1562:0 1563:0 1564:0 1565:4 1566:4 1567:4 1568:4 1569:4 1570:4 1571:4 1572:4 1573:4 1574:4 1575:4 1576:4 1577:4 1578:2 1579:2 1580:2 1581:2 1582:2 1583:2 1584:2 1585:2 1586:2 1587:2 1588:0 1589:0 1590:0 1591:2 1592:2 1593:2 1594:2 1595:4 1596:4 1597:4 1598:4 1599:2 1600:2 1601:2 1602:2 1603:2 1604:2 1605:2 1606:2 1607:2 1608:2 1609:2 1610:2 1611:2 1612:2 1613:2 1614:2 1615:2 1616:2 1617:2 1618:2 1619:2 1620:2 1621:2 1622:2 1623:2 1624:2 1625:2 1626:2 1627:4 1628:4 1629:4 1630:4 1631:4 1632:4 1633:4 1634:4 1635:4 1636:4 1637:4 1638:4 1639:4 1640:4 1641:4 1642:4 1643:2 1644:2 1645:2 1646:4 1647:4 1648:4 1649:4 1650:4 1651:4 1652:4 1653:4 1654:4 1655:4 1656:4 1657:2 1658:2 1659:2 1660:2 1661:2 1662:2 1663:2 1664:0 1665:2 1666:2 1667:2 1668:2 1669:4 1670:4 1671:4 1672:4 1673:4 1674:4 1675:4 1676:4 1677:4 1678:4 1679:4 1680:4 1681:4 1682:4 1683:4 1684:4 1685:4 1686:4 1687:4 1688:4 1689:4 1690:4 1691:4 1692:4 1693:4 1694:4 1695:4 1696:4 1697:4 1698:4 1699:4 1700:4 1701:4 1702:2 1703:2 1704:4 1705:4 1706:4 1707:0 1708:0 1709:0 1710:0 1711:0 1712:4 1713:4 1714:4 1715:4 1716:4 1717:4 1718:2 1719:2 1720:0 1721:0 1722:2 1723:4 1724:4 1725:4 1726:2 1727:2 1728:4 1729:4 1730:4 1731:4 1732:2 1733:2 1734:2 1735:2 1736:2 1737:2 1738:2 1739:2 1740:2 1741:2 1742:2 1743:2 1744:2 1745:4 1746:4 1747:4 1748:4 1749:4 1750:4 1751:4 1752:0 1753:4 1754:4 1755:2 1756:2 1757:4 1758:4 1759:4 1760:4 1761:4 1762:4 1763:4 1764:4 1765:4 1766:4 1767:4 1768:4 1769:4 1770:4 1771:4 1772:4 1773:4 1774:4 1775:4 1776:4 1777:2 1778:2 1779:2 1780:2 1781:2 1782:2 1783:4 1784:4 1785:4 1786:4 1787:4 1788:4 1789:4 1790:4 1791:4 1792:4 1793:4 1794:4 1795:4 1796:4 1797:4 1798:4 1799:4 1800:4 1801:4 1802:4 1803:4 1804:4 1805:4 1806:4 1807:4 1808:0 1809:4 1810:4 1811:4 1812:2 1813:2 1814:2 1815:2 1816:4 1817:4 1818:2 1819:0 1820:0 1821:2 1822:0 1823:0 1824:0 1825:0 1826:0 1827:2 1828:4 1829:4 1830:0 1831:0 1832:0 1833:0 1834:0 1835:0 1836:0 1837:0 1838:0 1839:0 1840:0 1841:0 1842:0 1843:0 1844:0 1845:0 1846:0 1847:0 1848:0 1849:0 1850:0 1851:0 1852:0 1853:0 1854:0 1855:0 1856:0 1857:0 1858:0 1859:0 1860:0 1861:0 1862:0 1863:0 1864:0 1865:0 1866:0 1867:0 1868:0 1869:0 1870:0 1871:0 1872:0 1873:0 1874:0 1875:0 1876:0 1877:0 1878:0 1879:0 1880:0 1881:0 1882:0 1883:0 1884:0 1885:0 1886:0 1887:4 1888:4 1889:4 1890:4 1891:4 1892:4 1893:4 1894:4 1895:4 1896:4 1897:4 1898:4 1899:4 1900:4 1901:0 1902:0 1903:0 1904:0 1905:0 1906:0 1907:0 1908:0 1909:0 1910:0 1911:4 1912:4 1913:4 1914:4 1915:4 1916:2 1917:2 1918:2 1919:2 1920:2 1921:2 1922:2 1923:2 1924:2 1925:2 1926:2 1927:2 1928:2 1929:2 1930:2 1931:2 1932:2 1933:4 1934:4 1935:4 1936:4 1937:4 1938:4 1939:4 1940:4 1941:4 1942:4 1943:4 1944:4 1945:4 1946:4 1947:4 1948:4 1949:4 1950:2 1951:2 1952:2 1953:2 1954:4 1955:4 1956:4 1957:4 1958:4 1959:4 1960:4 1961:4 1962:4 1963:4 1964:4 1965:4 1966:4 1967:2 1968:2 1969:2 1970:2 1971:4 1972:4 1973:4 1974:4 1975:4 1976:4 1977:4 1978:4 1979:4 1980:4 1981:4 1982:4 1983:4 1984:4 1985:0 1986:4 1987:4 1988:4 1989:4 1990:0 1991:0 1992:0 1993:4 1994:4 1995:2 1996:2 1997:0 1998:2 1999:2 2000:2 2001:2 2002:2 2003:2 2004:0 2005:2 2006:2 2007:2 2008:2 2009:0 2010:2 2011:2 2012:2 2013:2 2014:2 2015:4 2016:4 2017:4 2018:4 2019:4 2020:4 2021:4 2022:4 2023:4 2024:4 2025:4 2026:4 2027:4 2028:4 2029:4 2030:0 2031:0 2032:0 2033:4 2034:2 2035:2 2036:0 2037:0 2038:2 2039:4 2040:4 2041:4 2042:4 2043:4 2044:4 2045:0 2046:0 2047:0 2048:0 2049:0 2050:0 2051:0 2052:0 2053:4 2054:4 2055:4 2056:2 2057:2 2058:2 2059:2 2060:2 2061:2 2062:2 2063:2 2064:2 2065:2 2066:2 2067:2 2068:2 2069:2 2070:2 2071:2 2072:2 2073:2 2074:2 2075:2 2076:2 2077:4 2078:4 2079:4 2080:4 2081:4 2082:0 2083:0 2084:0 2085:4 2086:0 2087:0 2088:0 2089:0 2090:0 2091:0 2092:0 2093:0 2094:0 2095:0 2096:0 2097:0 2098:0 2099:0 2100:0 2101:0 2102:0 2103:0 2104:0 2105:0 2106:0 2107:0 2108:0 2109:0 2110:0 2111:0 2112:4 2113:4 2114:4 2115:4 2116:4 2117:4 2118:4 2119:4 2120:4 2121:4 2122:4 2123:4 2124:4 2125:4 2126:4 2127:4 2128:4 2129:4 2130:4 2131:4 2132:4 2133:2 2134:2 2135:4 2136:4 2137:4 2138:2 2139:2 2140:2 2141:2 2142:2 2143:2 2144:2 2145:2 2146:2 2147:4 2148:4 2149:4 2150:4 2151:4 2152:4 2153:4 2154:4 2155:4 2156:0 2157:0 2158:0 2159:0 2160:0 2161:0 2162:0 2163:0 2164:0 2165:0 2166:0 2167:0 2168:0 2169:0 2170:0 2171:0 2172:0 2173:0 2174:0 2175:0 2176:0 2177:0 2178:0 2179:0 2180:0 2181:0 2182:0 2183:0 2184:0 2185:0 2186:0 2187:0 2188:0 2189:0 2190:0 2191:0 2192:0 2193:0 2194:0 2195:0 2196:0 2197:0 2198:0 2199:0 2200:0 2201:0 2202:0 2203:0 2204:0 2205:0 2206:0 2207:0 2208:4 2209:4 2210:4 2211:4 2212:4 2213:2 2214:2 2215:2 2216:2 2217:2 2218:2 2219:2 2220:2 2221:2 2222:4 2223:4 2224:4 2225:4 2226:4 2227:4 2228:4 2229:4 2230:4 2231:0 2232:4 2233:4 2234:4 2235:4 2236:4 2237:2 2238:2 2239:2 2240:2 2241:2 2242:2 2243:2 2244:2 2245:2 2246:4 2247:4 2248:4 2249:4 2250:4 2251:4 2252:4 2253:4 2254:4 2255:0 2256:0 2257:4 2258:2 2259:0 2260:0 2261:0 2262:0 2263:2 2264:2 2265:2 2266:2 2267:2 2268:2 2269:2 2270:2 2271:2 2272:2 2273:2 2274:0 2275:4 2276:4 2277:4 2278:4 2279:4 2280:4 2281:4 2282:4 2283:4 2284:4 2285:4 2286:4 2287:2 2288:2 2289:2 2290:2 2291:2 2292:2 2293:2 2294:4 2295:4 2296:4 2297:4 2298:2 2299:4 2300:4 2301:4 2302:4 2303:4 2304:4 2305:4 2306:4 2307:2 2308:2 2309:2 2310:2 2311:2 2312:2 2313:2 2314:2 2315:2 2316:4 2317:4 2318:4 2319:4 2320:2 2321:2 2322:2 2323:2 2324:2 2325:2 2326:2 2327:2 2328:2 2329:4 2330:4 2331:4 2332:4 2333:4 2334:4 2335:4 2336:4 2337:4 2338:4 2339:4 2340:4 2341:4 2342:4 2343:4 2344:4 2345:4 2346:0 2347:4 2348:4 2349:4 2350:4 2351:4 2352:4 2353:4 2354:4 2355:4 2356:2 2357:2 2358:2 2359:2 2360:2 2361:2 2362:2 2363:2 2364:2 2365:2 2366:2 2367:2 2368:4 2369:4 2370:2 2371:2 2372:2 2373:2 2374:2 2375:2 2376:2 2377:2 2378:2 2379:2 2380:2 2381:2 2382:2 2383:2 2384:2 2385:2 2386:2 2387:2 2388:2 2389:2 2390:2 2391:2 2392:2 2393:2 2394:2 2395:0 2396:0 2397:0 2398:0 2399:0 2400:0 2401:0 2402:0 2403:2 2404:2 2405:2 2406:2 2407:2 2408:2 2409:2 2410:2 2411:2 2412:2 2413:4 2414:4 2415:2 2416:0 2417:0 2418:0 2419:0 2420:0 2421:0 2422:0 2423:2 2424:2 2425:2 2426:2 2427:2 2428:2 2429:2 2430:2 2431:2 2432:2 2433:2 2434:2 2435:2 2436:2 2437:2 2438:2 2439:2 2440:2 2441:2 2442:2 2443:2 2444:2 2445:2 2446:2 2447:2 2448:2 2449:2 2450:0 2451:0 2452:0 2453:0 2454:0 2455:0 2456:0 2457:0 2458:0 2459:0 2460:0 2461:0 2462:0 2463:0 2464:0 2465:0 2466:0 2467:0 2468:0 2469:0 2470:0 2471:0 2472:2 2473:2 2474:2 2475:2 2476:2 2477:2 2478:2 2479:2 2480:2 2481:2 2482:2 2483:2 2484:2 2485:2 2486:2 2487:2 2488:2 2489:2 2490:2 2491:2 2492:2 2493:2 2494:2 2495:2 2496:2 2497:0 2498:2 2499:2 2500:2 2501:2 2502:2 2503:2 2504:2 2505:2 2506:2 2507:2 2508:2 2509:2 2510:2 2511:2 2512:0 2513:2 2514:2 2515:2 2516:2 2517:2 2518:2 2519:0 2520:2 2521:2 2522:2 2523:2 2524:2 2525:0 2526:2 2527:2 2528:2 2529:2 2530:2 2531:2 2532:2 2533:0 2534:2 2535:2 2536:2 2537:0 2538:0 2539:0 2540:0 2541:0 2542:0 2543:2 2544:0 2545:0 2546:0 2547:0 2548:2 2549:2 2550:2 2551:2 2552:2 2553:2 2554:2 2555:0 2556:0 2557:0 2558:2 2559:2 2560:2 2561:2 2562:2 2563:2 2564:2 2565:2 2566:2 2567:2 2568:0 2569:0 2570:2 2571:0 2572:2 2573:2 2574:2 2575:2 2576:2 2577:2 2578:2 2579:2 2580:0 2581:0 2582:0 2583:0 2584:0 2585:0 2586:2 2587:2 2588:2 2589:2 2590:2 2591:0 2592:0 2593:0 2594:0 2595:2 2596:0 2597:2 2598:2 2599:2 2600:2 2601:2 2602:0 2603:2 2604:0 2605:2 2606:2 2607:2 2608:2 2609:2 2610:0 2611:0 2612:2 2613:2 2614:2 2615:2 2616:2 2617:0 2618:0 2619:0 2620:2 2621:2 2622:2 2623:2 2624:2 2625:0 2626:2 2627:2 2628:2 2629:2 2630:2 2631:0 2632:0 2633:0 2634:2 2635:2 2636:2 2637:2 2638:2 2639:0 2640:2 2641:2 2642:0 2643:0 2644:0 2645:2 2646:0 2647:0 2648:2 2649:2 2650:2 2651:2 2652:2 2653:2 2654:2 2655:0 2656:0 2657:2 2658:2 2659:0 2660:2 2661:2 2662:2 2663:2 2664:2 2665:0 2666:2 2667:2 2668:0 2669:0 2670:2 2671:0 2672:2 2673:0 2674:2 2675:2 2676:0 2677:0 2678:0 2679:0 2680:0 2681:0 2682:0 2683:0 2684:0 2685:2 2686:0 2687:0 2688:0 2689:0 2690:0 2691:0 2692:0 2693:0 2694:0 2695:0 2696:0 2697:0 2698:0 2699:0 2700:0 2701:0 2702:0 2703:0 2704:0 2705:0 2706:0 2707:0 2708:0 2709:0 2710:0 2711:0 2712:0 2713:0 2714:0 2715:0 2716:0 2717:0 2718:0 2719:0 2720:0 2721:0 2722:0 2723:0 2724:0 2725:0 2726:0 2727:0 2728:0 2729:0 2730:0 2731:0 2732:0 2733:0 2734:0 2735:0 2736:0 2737:0 2738:0 2739:0 2740:0 2741:0 2742:0 2743:0 2744:0 2745:0 2746:0 2747:0 2748:0 2749:0 2750:0 2751:0 2752:0 2753:0 2754:0 2755:0 2756:0 2757:0 2758:0 2759:0 2760:0 2761:0 2762:0 2763:0 2764:0 2765:0 2766:0 2767:0 2768:0 2769:0 2770:0 2771:0 2772:0 2773:0 2774:0 2775:0 2776:0 2777:0 2778:0 2779:0 2780:0 2781:0 2782:0 2783:2 2784:2 2785:2 2786:2 2787:0 2788:0 2789:2 2790:2 2791:0 2792:2 2793:0 2794:2 2795:0 2796:0 2797:2 2798:2 2799:2 2800:2 2801:2 2802:2 2803:0 2804:0 2805:0 2806:2 2807:0 2808:2 2809:2 2810:2 2811:0 2812:2 2813:2 2814:2 2815:2 2816:0 2817:2 2818:0 2819:0 2820:2 2821:2 2822:2 2823:2 2824:2 2825:0 2826:0 2827:2 2828:2 2829:0 2830:2 2831:2 2832:2 2833:2 2834:0 2835:2 2836:2 2837:2 2838:2 2839:0 2840:2 2841:0 2842:0 2843:2 2844:2 2845:2 2846:2 2847:2 2848:2 2849:0 2850:0 2851:0 2852:2 2853:2 2854:2 2855:2 2856:2 2857:2 2858:0 2859:2 2860:2 2861:2 2862:2 2863:2 2864:2 2865:0 2866:2 2867:2 2868:2 2869:2 2870:2 2871:2 2872:0 2873:2 2874:2 2875:2 2876:2 2877:2 2878:0 2879:2 2880:2 2881:4 2882:4 2883:4 2884:0 2885:2 2886:2 2887:2 2888:2 2889:2 2890:2 2891:0 2892:4 2893:4 2894:4 2895:2 2896:2 2897:0 2898:4 2899:4 2900:4 2901:4 2902:4 2903:4 2904:4 2905:4 2906:4 2907:4 2908:4 2909:4 2910:4 2911:4 2912:4 2913:4 2914:2 2915:2 2916:4 2917:4 2918:4 2919:4 2920:4 2921:4 2922:4 2923:4 2924:4 2925:4 2926:4 2927:4 2928:4 2929:2 2930:2 2931:2 2932:2 2933:2 2934:2 2935:2 2936:2 2937:2 2938:2 2939:2 2940:2 2941:2 2942:2 2943:2 2944:0 2945:2 2946:2 2947:2 2948:2 2949:2 2950:2 2951:4 2952:4 2953:4 2954:4 2955:4 2956:4 2957:4 2958:4 2959:0 2960:4 2961:0 2962:2 2963:2 2964:0 2965:0 2966:0 2967:0 2968:0 2969:0 2970:0 2971:0 2972:0 2973:0 2974:0 2975:0 2976:0 2977:0 2978:0 2979:0 2980:0 2981:0 2982:0 2983:0 2984:0 2985:0 2986:0 2987:0 2988:0 2989:0 2990:0 2991:0 2992:0 2993:0 2994:0 2995:0 2996:0 2997:0 2998:0 2999:0 3000:0 3001:0 3002:0 3003:0 3004:0 3005:0 3006:0 3007:0 3008:0 3009:0 3010:0 3011:0 3012:0 3013:0 3014:0 #
-5.7074540931817353741489773355511e-05 1:0 2:0 3:0 4:0 5:0 6:0 7:0 8:0 9:0 10:0 11:0 12:0 13:0 14:0 15:0 16:0 17:0 18:0 19:0 20:0 21:0 22:0 23:0 24:0 25:0 26:0 27:0 28:0 29:2 30:2 31:2 32:2 33:0 34:0 35:0 36:2 37:2 38:2 39:2 40:2 41:2 42:2 43:2 44:2 45:2 46:2 47:2 48:2 49:2 50:2 51:2 52:0 53:2 54:2 55:2 56:2 57:2 58:2 59:2 60:2 61:2 62:2 63:0 64:0 65:0 66:0 67:0 68:0 69:2 70:2 71:2 72:2 73:2 74:2 75:2 76:2 77:2 78:2 79:4 80:4 81:4 82:4 83:4 84:2 85:2 86:2 87:2 88:2 89:2 90:2 91:2 92:2 93:2 94:2 95:4 96:4 97:4 98:2 99:2 100:2 101:2 102:2 103:2 104:2 105:2 106:2 107:2 108:2 109:2 110:2 111:2 112:2 113:2 114:2 115:2 116:2 117:2 118:2 119:2 120:2 121:4 122:4 123:4 124:4 125:4 126:4 127:4 128:4 129:4 130:4 131:4 132:2 133:4 134:4 135:4 136:4 137:4 138:4 139:4 140:4 141:4 142:4 143:4 144:4 145:4 146:4 147:4 148:4 149:4 150:4 151:4 152:4 153:2 154:2 155:2 156:2 157:2 158:2 159:2 160:2 161:2 162:4 163:4 164:4 165:4 166:4 167:4 168:4 169:4 170:4 171:4 172:4 173:4 174:4 175:4 176:4 177:4 178:4 179:4 180:4 181:4 182:4 183:4 184:4 185:4 186:4 187:4 188:4 189:4 190:2 191:2 192:2 193:2 194:2 195:2 196:2 197:2 198:2 199:2 200:2 201:2 202:2 203:2 204:2 205:2 206:4 207:4 208:4 209:4 210:4 211:4 212:4 213:4 214:4 215:4 216:4 217:4 218:4 219:4 220:4 221:4 222:2 223:2 224:2 225:2 226:4 227:4 228:4 229:4 230:4 231:4 232:4 233:4 234:4 235:4 236:4 237:4 238:4 239:4 240:4 241:4 242:4 243:0 244:4 245:4 246:4 247:4 248:4 249:4 250:4 251:0 252:4 253:4 254:4 255:4 256:4 257:4 258:4 259:4 260:0 261:4 262:4 263:4 264:4 265:4 266:4 267:4 268:0 269:4 270:4 271:4 272:4 273:4 274:4 275:4 276:4 277:4 278:4 279:4 280:4 281:4 282:4 283:4 284:4 285:4 286:4 287:4 288:4 289:2 290:2 291:2 292:2 293:2 294:2 295:2 296:2 297:2 298:2 299:2 300:2 301:2 302:2 303:2 304:2 305:0 306:2 307:0 308:0 309:2 310:2 311:2 312:0 313:2 314:0 315:0 316:0 317:0 318:0 319:0 320:0 321:0 322:0 323:0 324:0 325:0 326:0 327:0 328:0 329:0 330:0 331:0 332:0 333:2 334:0 335:2 336:0 337:2 338:2 339:2 340:2 341:0 342:0 343:0 344:0 345:0 346:0 347:0 348:0 349:0 350:0 351:0 352:0 353:0 354:0 355:0 356:0 357:0 358:0 359:0 360:0 361:0 362:0 363:0 364:0 365:0 366:0 367:0 368:0 369:0 370:0 371:0 372:0 373:0 374:0 375:0 376:0 377:0 378:0 379:0 380:0 381:0 382:0 383:0 384:0 385:0 386:0 387:0 388:0 389:0 390:2 391:2 392:2 393:2 394:2 395:2 396:2 397:2 398:2 399:2 400:2 401:2 402:2 403:2 404:2 405:2 406:2 407:2 408:2 409:2 410:2 411:2 412:2 413:4 414:4 415:4 416:4 417:0 418:4 419:4 420:4 421:4 422:4 423:4 424:4 425:4 426:4 427:4 428:4 429:4 430:4 431:2 432:2 433:4 434:4 435:4 436:4 437:4 438:4 439:4 440:4 441:4 442:4 443:4 444:4 445:2 446:2 447:2 448:2 449:4 450:0 451:0 452:0 453:0 454:4 455:4 456:4 457:4 458:4 459:4 460:4 461:4 462:4 463:4 464:4 465:0 466:4 467:4 468:4 469:4 470:4 471:4 472:4 473:4 474:4 475:4 476:4 477:4 478:4 479:0 480:0 481:0 482:0 483:0 484:0 485:0 486:0 487:0 488:0 489:0 490:0 491:0 492:4 493:4 494:4 495:4 496:4 497:4 498:4 499:4 500:4 501:0 502:0 503:0 504:0 505:0 506:0 507:0 508:0 509:0 510:4 511:4 512:4 513:4 514:4 515:0 516:0 517:0 518:0 519:0 520:0 521:0 522:0 523:0 524:0 525:0 526:0 527:0 528:0 529:0 530:4 531:4 532:4 533:0 534:0 535:0 536:0 537:0 538:0 539:0 540:0 541:0 542:0 543:0 544:0 545:0 546:0 547:0 548:4 549:0 550:0 551:0 552:0 553:0 554:0 555:0 556:0 557:0 558:0 559:4 560:4 561:4 562:0 563:0 564:4 565:0 566:4 567:0 568:0 569:0 570:0 571:0 572:0 573:0 574:0 575:0 576:0 577:0 578:0 579:0 580:0 581:0 582:4 583:4 584:4 585:4 586:4 587:4 588:4 589:4 590:4 591:4 592:4 593:4 594:4 595:4 596:4 597:4 598:2 599:2 600:2 601:4 602:4 603:4 604:4 605:2 606:2 607:2 608:2 609:0 610:2 611:2 612:2 613:2 614:2 615:2 616:2 617:4 618:4 619:4 620:4 621:4 622:4 623:4 624:4 625:4 626:2 627:2 628:0 629:2 630:0 631:2 632:2 633:0 634:2 635:2 636:0 637:2 638:0 639:2 640:0 641:0 642:2 643:2 644:2 645:4 646:4 647:0 648:4 649:0 650:4 651:0 652:4 653:0 654:0 655:0 656:4 657:0 658:4 659:4 660:0 661:4 662:2 663:0 664:2 665:2 666:0 667:4 668:4 669:0 670:4 671:4 672:0 673:0 674:4 675:4 676:0 677:4 678:4 679:0 680:2 681:2 682:0 683:2 684:2 685:0 686:2 687:0 688:2 689:0 690:4 691:0 692:4 693:4 694:0 695:2 696:2 697:0 698:2 699:2 700:0 701:0 702:4 703:4 704:0 705:4 706:4 707:0 708:4 709:4 710:4 711:0 712:4 713:4 714:0 715:0 716:4 717:4 718:0 719:4 720:2 721:2 722:0 723:2 724:4 725:0 726:4 727:0 728:4 729:0 730:0 731:4 732:4 733:4 734:0 735:0 736:4 737:0 738:4 739:0 740:4 741:0 742:0 743:0 744:0 745:0 746:0 747:0 748:0 749:0 750:0 751:4 752:0 753:0 754:4 755:0 756:4 757:0 758:4 759:4 760:4 761:0 762:4 763:4 764:0 765:4 766:4 767:0 768:4 769:2 770:0 771:2 772:2 773:2 774:0 775:2 776:0 777:4 778:4 779:0 780:0 781:4 782:4 783:4 784:0 785:0 786:0 787:0 788:0 789:0 790:0 791:0 792:0 793:0 794:0 795:0 796:0 797:0 798:0 799:0 800:0 801:0 802:0 803:0 804:0 805:0 806:0 807:0 808:0 809:0 810:0 811:0 812:0 813:0 814:0 815:0 816:0 817:0 818:0 819:0 820:0 821:0 822:0 823:0 824:0 825:0 826:0 827:0 828:0 829:0 830:0 831:0 832:4 833:4 834:4 835:4 836:4 837:4 838:4 839:4 840:4 841:4 842:4 843:4 844:4 845:4 846:4 847:4 848:4 849:4 850:4 851:4 852:4 853:4 854:4 855:2 856:2 857:0 858:2 859:2 860:0 861:4 862:0 863:0 864:4 865:4 866:2 867:2 868:4 869:4 870:4 871:4 872:0 873:4 874:4 875:4 876:4 877:4 878:4 879:4 880:0 881:4 882:0 883:4 884:4 885:4 886:4 887:4 888:0 889:0 890:0 891:0 892:0 893:0 894:0 895:0 896:0 897:0 898:0 899:4 900:4 901:4 902:4 903:4 904:2 905:2 906:2 907:2 908:2 909:4 910:4 911:4 912:4 913:4 914:4 915:4 916:4 917:4 918:4 919:4 920:4 921:4 922:4 923:4 924:4 925:4 926:4 927:4 928:4 929:4 930:4 931:4 932:4 933:4 934:4 935:4 936:4 937:4 938:4 939:4 940:4 941:4 942:4 943:4 944:4 945:4 946:4 947:4 948:4 949:4 950:4 951:4 952:4 953:4 954:4 955:4 956:4 957:4 958:4 959:4 960:4 961:4 962:4 963:4 964:4 965:4 966:4 967:4 968:4 969:2 970:2 971:2 972:2 973:2 974:2 975:2 976:2 977:2 978:2 979:2 980:4 981:4 982:4 983:4 984:4 985:4 986:4 987:4 988:0 989:0 990:4 991:4 992:0 993:4 994:4 995:4 996:0 997:4 998:4 999:4 1000:4 1001:4 1002:4 1003:2 1004:2 1005:2 1006:4 1007:4 1008:4 1009:4 1010:0 1011:0 1012:0 1013:0 1014:0 1015:0 1016:0 1017:0 1018:0 1019:0 1020:0 1021:4 1022:4 1023:4 1024:4 1025:4 1026:0 1027:4 1028:4 1029:2 1030:2 1031:2 1032:2 1033:2 1034:2 1035:2 1036:0 1037:4 1038:4 1039:4 1040:4 1041:4 1042:4 1043:4 1044:4 1045:4 1046:4 1047:4 1048:4 1049:4 1050:4 1051:4 1052:4 1053:4 1054:4 1055:4 1056:4 1057:4 1058:4 1059:4 1060:4 1061:0 1062:4 1063:4 1064:4 1065:4 1066:4 1067:4 1068:2 1069:2 1070:2 1071:2 1072:2 1073:2 1074:2 1075:2 1076:0 1077:2 1078:2 1079:2 1080:2 1081:4 1082:4 1083:4 1084:4 1085:4 1086:4 1087:4 1088:4 1089:4 1090:4 1091:4 1092:0 1093:0 1094:0 1095:0 1096:0 1097:0 1098:0 1099:4 1100:2 1101:2 1102:2 1103:2 1104:2 1105:2 1106:2 1107:2 1108:2 1109:2 1110:2 1111:2 1112:2 1113:2 1114:2 1115:2 1116:2 1117:2 1118:2 1119:2 1120:2 1121:2 1122:2 1123:2 1124:2 1125:2 1126:2 1127:2 1128:2 1129:2 1130:2 1131:2 1132:2 1133:2 1134:2 1135:0 1136:0 1137:0 1138:0 1139:0 1140:0 1141:0 1142:0 1143:0 1144:0 1145:0 1146:0 1147:0 1148:0 1149:0 1150:0 1151:0 1152:2 1153:2 1154:2 1155:2 1156:2 1157:2 1158:2 1159:2 1160:2 1161:2 1162:2 1163:2 1164:2 1165:2 1166:2 1167:2 1168:2 1169:2 1170:2 1171:2 1172:0 1173:2 1174:2 1175:2 1176:0 1177:2 1178:2 1179:0 1180:0 1181:0 1182:0 1183:0 1184:0 1185:0 1186:0 1187:0 1188:0 1189:0 1190:0 1191:0 1192:0 1193:0 1194:0 1195:0 1196:2 1197:0 1198:2 1199:0 1200:2 1201:2 1202:2 1203:2 1204:0 1205:2 1206:0 1207:2 1208:2 1209:2 1210:0 1211:2 1212:2 1213:2 1214:4 1215:4 1216:0 1217:4 1218:4 1219:4 1220:4 1221:2 1222:2 1223:2 1224:0 1225:2 1226:2 1227:2 1228:2 1229:2 1230:0 1231:2 1232:2 1233:2 1234:2 1235:0 1236:2 1237:2 1238:0 1239:2 1240:2 1241:2 1242:2 1243:2 1244:2 1245:0 1246:2 1247:2 1248:2 1249:2 1250:2 1251:2 1252:2 1253:0 1254:2 1255:2 1256:2 1257:2 1258:2 1259:2 1260:2 1261:0 1262:2 1263:2 1264:2 1265:2 1266:2 1267:2 1268:2 1269:2 1270:0 1271:2 1272:2 1273:2 1274:2 1275:2 1276:2 1277:2 1278:0 1279:2 1280:2 1281:2 1282:2 1283:2 1284:2 1285:2 1286:0 1287:2 1288:2 1289:2 1290:2 1291:2 1292:2 1293:2 1294:2 1295:0 1296:2 1297:2 1298:2 1299:2 1300:2 1301:2 1302:0 1303:2 1304:2 1305:2 1306:2 1307:2 1308:2 1309:2 1310:2 1311:2 1312:2 1313:2 1314:2 1315:2 1316:2 1317:2 1318:2 1319:2 1320:2 1321:2 1322:2 1323:2 1324:2 1325:2 1326:2 1327:2 1328:2 1329:2 1330:2 1331:2 1332:2 1333:2 1334:2 1335:2 1336:2 1337:2 1338:2 1339:2 1340:2 1341:2 1342:2 1343:2 1344:2 1345:2 1346:2 1347:2 1348:2 1349:2 1350:2 1351:2 1352:2 1353:2 1354:4 1355:4 1356:4 1357:2 1358:2 1359:2 1360:2 1361:2 1362:2 1363:2 1364:2 1365:2 1366:2 1367:2 1368:2 1369:2 1370:2 1371:2 1372:2 1373:2 1374:2 1375:2 1376:2 1377:2 1378:2 1379:2 1380:2 1381:2 1382:2 1383:2 1384:2 1385:2 1386:2 1387:2 1388:2 1389:2 1390:2 1391:2 1392:2 1393:2 1394:4 1395:4 1396:4 1397:4 1398:2 1399:2 1400:2 1401:2 1402:2 1403:2 1404:2 1405:2 1406:2 1407:2 1408:2 1409:2 1410:2 1411:4 1412:4 1413:4 1414:2 1415:2 1416:2 1417:2 1418:2 1419:2 1420:2 1421:2 1422:2 1423:2 1424:2 1425:2 1426:2 1427:2 1428:2 1429:2 1430:2 1431:2 1432:2 1433:2 1434:0 1435:0 1436:0 1437:2 1438:2 1439:0 1440:0 1441:0 1442:0 1443:0 1444:0 1445:0 1446:0 1447:0 1448:0 1449:0 1450:0 1451:0 1452:0 1453:0 1454:0 1455:0 1456:0 1457:0 1458:0 1459:0 1460:0 1461:2 1462:2 1463:2 1464:2 1465:2 1466:2 1467:0 1468:2 1469:2 1470:2 1471:2 1472:2 1473:0 1474:2 1475:2 1476:2 1477:2 1478:2 1479:0 1480:2 1481:0 1482:2 1483:0 1484:2 1485:2 1486:2 1487:2 1488:2 1489:2 1490:0 1491:0 1492:0 1493:0 1494:0 1495:2 1496:2 1497:2 1498:2 1499:2 1500:2 1501:2 1502:0 1503:0 1504:0 1505:0 1506:0 1507:0 1508:0 1509:2 1510:2 1511:2 1512:2 1513:2 1514:2 1515:2 1516:2 1517:2 1518:0 1519:0 1520:0 1521:0 1522:0 1523:0 1524:0 1525:0 1526:0 1527:0 1528:0 1529:0 1530:0 1531:0 1532:0 1533:0 1534:0 1535:0 1536:0 1537:2 1538:2 1539:2 1540:2 1541:2 1542:0 1543:0 1544:0 1545:0 1546:0 1547:0 1548:0 1549:0 1550:0 1551:0 1552:0 1553:0 1554:0 1555:0 1556:0 1557:0 1558:0 1559:0 1560:0 1561:0 1562:0 1563:0 1564:0 1565:0 1566:0 1567:0 1568:0 1569:0 1570:0 1571:0 1572:0 1573:0 1574:0 1575:2 1576:2 1577:2 1578:2 1579:0 1580:2 1581:2 1582:2 1583:2 1584:2 1585:2 1586:2 1587:2 1588:2 1589:2 1590:2 1591:2 1592:2 1593:2 1594:2 1595:2 1596:2 1597:2 1598:2 1599:2 1600:2 1601:4 1602:4 1603:4 1604:4 1605:2 1606:2 1607:2 1608:2 1609:2 1610:2 1611:2 1612:2 1613:2 1614:2 1615:2 1616:2 1617:2 1618:2 1619:2 1620:2 1621:2 1622:0 1623:0 1624:0 1625:0 1626:0 1627:0 1628:0 1629:0 1630:0 1631:0 1632:0 1633:0 1634:0 1635:0 1636:0 1637:0 1638:0 1639:0 1640:0 1641:2 1642:2 1643:2 1644:2 1645:2 1646:2 1647:2 1648:2 1649:2 1650:2 1651:2 1652:2 1653:2 1654:2 1655:2 1656:2 1657:2 1658:2 1659:2 1660:2 1661:2 1662:2 1663:2 1664:2 1665:2 1666:2 1667:2 1668:4 1669:4 1670:4 1671:4 1672:4 1673:4 1674:4 1675:4 1676:4 1677:4 1678:4 1679:4 1680:2 1681:2 1682:4 1683:4 1684:4 1685:4 1686:4 1687:4 1688:4 1689:4 1690:4 1691:4 1692:4 1693:4 1694:4 1695:4 1696:4 1697:4 1698:4 1699:4 1700:4 1701:2 1702:2 1703:0 1704:2 1705:2 1706:2 1707:2 1708:2 1709:4 1710:4 1711:4 1712:4 1713:4 1714:4 1715:4 1716:4 1717:4 1718:4 1719:4 1720:4 1721:4 1722:4 1723:4 1724:4 1725:4 1726:4 1727:4 1728:4 1729:4 1730:4 1731:4 1732:4 1733:4 1734:4 1735:4 1736:4 1737:4 1738:4 1739:2 1740:2 1741:2 1742:2 1743:2 1744:2 1745:2 1746:2 1747:2 1748:2 1749:2 1750:4 1751:4 1752:0 1753:4 1754:4 1755:0 1756:4 1757:4 1758:4 1759:4 1760:0 1761:4 1762:4 1763:4 1764:4 1765:4 1766:0 1767:4 1768:4 1769:4 1770:0 1771:4 1772:4 1773:4 1774:2 1775:2 1776:2 1777:2 1778:2 1779:2 1780:2 1781:2 1782:2 1783:4 1784:4 1785:4 1786:4 1787:4 1788:4 1789:4 1790:4 1791:4 1792:4 1793:4 1794:4 1795:4 1796:4 1797:4 1798:4 1799:4 1800:4 1801:4 1802:4 1803:4 1804:4 1805:0 1806:4 1807:4 1808:4 1809:4 1810:4 1811:4 1812:4 1813:4 1814:4 1815:4 1816:4 1817:4 1818:4 1819:4 1820:4 1821:4 1822:4 1823:4 1824:4 1825:4 1826:4 1827:4 1828:4 1829:4 1830:4 1831:4 1832:4 1833:4 1834:4 1835:4 1836:4 1837:4 1838:4 1839:4 1840:4 1841:4 1842:4 1843:4 1844:2 1845:2 1846:2 1847:2 1848:2 1849:2 1850:2 1851:2 1852:2 1853:2 1854:2 1855:2 1856:2 1857:2 1858:2 1859:2 1860:0 1861:0 1862:2 1863:2 1864:2 1865:2 1866:2 1867:2 1868:2 1869:2 1870:2 1871:2 1872:2 1873:4 1874:4 1875:2 1876:2 1877:2 1878:2 1879:2 1880:2 1881:2 1882:2 1883:2 1884:2 1885:2 1886:2 1887:2 1888:4 1889:4 1890:4 1891:4 1892:4 1893:4 1894:4 1895:4 1896:4 1897:4 1898:4 1899:4 1900:4 1901:4 1902:4 1903:4 1904:2 1905:2 1906:2 1907:4 1908:4 1909:4 1910:4 1911:4 1912:4 1913:4 1914:4 1915:4 1916:4 1917:4 1918:2 1919:2 1920:2 1921:2 1922:2 1923:2 1924:2 1925:2 1926:2 1927:2 1928:2 1929:2 1930:4 1931:4 1932:4 1933:4 1934:4 1935:4 1936:4 1937:4 1938:4 1939:4 1940:4 1941:4 1942:4 1943:4 1944:4 1945:4 1946:4 1947:4 1948:4 1949:0 1950:4 1951:4 1952:4 1953:4 1954:4 1955:4 1956:4 1957:4 1958:4 1959:4 1960:4 1961:4 1962:4 1963:4 1964:4 1965:4 1966:4 1967:4 1968:2 1969:2 1970:4 1971:4 1972:0 1973:0 1974:0 1975:4 1976:4 1977:4 1978:4 1979:4 1980:4 1981:4 1982:0 1983:0 1984:0 1985:0 1986:4 1987:4 1988:4 1989:4 1990:0 1991:4 1992:4 1993:4 1994:4 1995:2 1996:2 1997:0 1998:2 1999:2 2000:2 2001:0 2002:0 2003:0 2004:0 2005:0 2006:2 2007:2 2008:2 2009:0 2010:4 2011:4 2012:4 2013:4 2014:2 2015:4 2016:4 2017:4 2018:4 2019:4 2020:4 2021:4 2022:4 2023:4 2024:4 2025:2 2026:2 2027:2 2028:4 2029:4 2030:4 2031:4 2032:4 2033:4 2034:4 2035:4 2036:4 2037:4 2038:4 2039:4 2040:4 2041:4 2042:4 2043:0 2044:0 2045:0 2046:0 2047:0 2048:0 2049:0 2050:0 2051:0 2052:0 2053:0 2054:0 2055:0 2056:0 2057:0 2058:0 2059:0 2060:0 2061:0 2062:0 2063:4 2064:4 2065:4 2066:4 2067:2 2068:2 2069:2 2070:2 2071:2 2072:2 2073:4 2074:4 2075:4 2076:4 2077:4 2078:4 2079:4 2080:4 2081:4 2082:4 2083:0 2084:4 2085:4 2086:4 2087:4 2088:4 2089:4 2090:4 2091:4 2092:4 2093:4 2094:4 2095:4 2096:4 2097:4 2098:4 2099:4 2100:4 2101:4 2102:2 2103:2 2104:2 2105:4 2106:4 2107:4 2108:2 2109:2 2110:2 2111:4 2112:4 2113:4 2114:4 2115:4 2116:4 2117:4 2118:4 2119:4 2120:4 2121:4 2122:4 2123:4 2124:4 2125:4 2126:4 2127:4 2128:4 2129:4 2130:4 2131:4 2132:4 2133:2 2134:2 2135:2 2136:2 2137:2 2138:2 2139:4 2140:4 2141:4 2142:4 2143:4 2144:4 2145:4 2146:4 2147:4 2148:4 2149:4 2150:4 2151:4 2152:4 2153:4 2154:0 2155:4 2156:4 2157:4 2158:4 2159:2 2160:2 2161:4 2162:4 2163:4 2164:4 2165:4 2166:4 2167:4 2168:4 2169:4 2170:4 2171:4 2172:4 2173:4 2174:4 2175:4 2176:4 2177:4 2178:4 2179:4 2180:4 2181:4 2182:4 2183:4 2184:4 2185:4 2186:4 2187:4 2188:4 2189:4 2190:4 2191:4 2192:4 2193:4 2194:4 2195:4 2196:4 2197:4 2198:4 2199:4 2200:2 2201:2 2202:2 2203:2 2204:0 2205:0 2206:0 2207:0 2208:0 2209:0 2210:0 2211:0 2212:2 2213:2 2214:2 2215:2 2216:2 2217:2 2218:2 2219:2 2220:2 2221:2 2222:2 2223:2 2224:4 2225:4 2226:4 2227:4 2228:4 2229:4 2230:4 2231:4 2232:4 2233:4 2234:4 2235:4 2236:4 2237:4 2238:4 2239:4 2240:4 2241:4 2242:2 2243:4 2244:4 2245:4 2246:4 2247:4 2248:4 2249:4 2250:4 2251:4 2252:2 2253:2 2254:2 2255:2 2256:2 2257:2 2258:2 2259:2 2260:2 2261:2 2262:2 2263:2 2264:2 2265:0 2266:0 2267:0 2268:0 2269:0 2270:0 2271:0 2272:2 2273:2 2274:2 2275:2 2276:4 2277:4 2278:4 2279:4 2280:4 2281:4 2282:4 2283:4 2284:4 2285:4 2286:4 2287:4 2288:4 2289:4 2290:4 2291:4 2292:4 2293:4 2294:0 2295:4 2296:4 2297:4 2298:4 2299:4 2300:4 2301:0 2302:4 2303:4 2304:4 2305:4 2306:4 2307:4 2308:4 2309:4 2310:4 2311:4 2312:4 2313:4 2314:4 2315:2 2316:2 2317:2 2318:4 2319:4 2320:4 2321:4 2322:4 2323:4 2324:4 2325:4 2326:4 2327:4 2328:4 2329:4 2330:4 2331:2 2332:2 2333:2 2334:2 2335:2 2336:2 2337:2 2338:2 2339:2 2340:2 2341:4 2342:4 2343:4 2344:4 2345:4 2346:4 2347:4 2348:4 2349:4 2350:4 2351:4 2352:4 2353:4 2354:4 2355:4 2356:2 2357:2 2358:2 2359:2 2360:2 2361:2 2362:2 2363:2 2364:4 2365:4 2366:4 2367:4 2368:4 2369:4 2370:4 2371:4 2372:4 2373:2 2374:2 2375:2 2376:2 2377:2 2378:2 2379:2 2380:2 2381:2 2382:2 2383:2 2384:2 2385:2 2386:2 2387:4 2388:4 2389:4 2390:4 2391:4 2392:4 2393:4 2394:4 2395:0 2396:0 2397:0 2398:0 2399:0 2400:4 2401:4 2402:4 2403:4 2404:4 2405:4 2406:4 2407:2 2408:2 2409:2 2410:2 2411:2 2412:2 2413:2 2414:4 2415:4 2416:4 2417:2 2418:2 2419:4 2420:4 2421:4 2422:4 2423:4 2424:4 2425:4 2426:4 2427:4 2428:4 2429:2 2430:2 2431:2 2432:2 2433:2 2434:2 2435:2 2436:4 2437:4 2438:4 2439:4 2440:4 2441:2 2442:2 2443:2 2444:2 2445:2 2446:2 2447:2 2448:2 2449:2 2450:2 2451:2 2452:4 2453:4 2454:4 2455:4 2456:4 2457:4 2458:4 2459:4 2460:4 2461:4 2462:4 2463:0 2464:0 2465:4 2466:4 2467:4 2468:4 2469:4 2470:0 2471:4 2472:4 2473:2 2474:0 2475:2 2476:2 2477:2 2478:2 2479:2 2480:2 2481:2 2482:2 2483:2 2484:2 2485:0 2486:2 2487:2 2488:2 2489:2 2490:2 2491:2 2492:2 2493:2 2494:2 2495:2 2496:2 2497:2 2498:2 2499:2 2500:2 2501:2 2502:2 2503:2 2504:2 2505:2 2506:2 2507:2 2508:2 2509:2 2510:2 2511:2 2512:0 2513:2 2514:2 2515:2 2516:2 2517:2 2518:2 2519:2 2520:2 2521:2 2522:0 2523:2 2524:2 2525:2 2526:2 2527:2 2528:2 2529:2 2530:2 2531:2 2532:2 2533:0 2534:2 2535:2 2536:2 2537:2 2538:2 2539:2 2540:2 2541:2 2542:2 2543:2 2544:2 2545:2 2546:2 2547:2 2548:0 2549:2 2550:2 2551:2 2552:2 2553:2 2554:2 2555:2 2556:0 2557:2 2558:2 2559:2 2560:2 2561:2 2562:2 2563:2 2564:2 2565:0 2566:2 2567:2 2568:2 2569:2 2570:2 2571:2 2572:0 2573:2 2574:2 2575:2 2576:2 2577:2 2578:2 2579:2 2580:0 2581:2 2582:2 2583:2 2584:2 2585:2 2586:2 2587:2 2588:0 2589:2 2590:2 2591:2 2592:2 2593:2 2594:2 2595:2 2596:0 2597:2 2598:2 2599:2 2600:2 2601:2 2602:2 2603:2 2604:0 2605:2 2606:2 2607:2 2608:2 2609:2 2610:2 2611:2 2612:2 2613:0 2614:2 2615:2 2616:2 2617:2 2618:2 2619:2 2620:2 2621:2 2622:0 2623:2 2624:2 2625:2 2626:2 2627:2 2628:2 2629:2 2630:2 2631:0 2632:2 2633:2 2634:2 2635:2 2636:2 2637:2 2638:2 2639:2 2640:2 2641:0 2642:2 2643:2 2644:2 2645:2 2646:2 2647:2 2648:2 2649:2 2650:2 2651:0 2652:2 2653:2 2654:2 2655:2 2656:2 2657:2 2658:2 2659:2 2660:0 2661:2 2662:2 2663:2 2664:2 2665:2 2666:2 2667:2 2668:2 2669:2 2670:0 2671:2 2672:2 2673:2 2674:2 2675:2 2676:2 2677:2 2678:2 2679:2 2680:0 2681:2 2682:2 2683:2 2684:2 2685:2 2686:2 2687:2 2688:2 2689:2 2690:0 2691:2 2692:2 2693:2 2694:2 2695:2 2696:2 2697:2 2698:2 2699:2 2700:0 2701:2 2702:2 2703:2 2704:2 2705:2 2706:2 2707:2 2708:2 2709:2 2710:0 2711:2 2712:2 2713:2 2714:2 2715:2 2716:2 2717:2 2718:2 2719:2 2720:0 2721:2 2722:2 2723:2 2724:2 2725:2 2726:2 2727:2 2728:2 2729:2 2730:0 2731:2 2732:2 2733:2 2734:2 2735:2 2736:2 2737:2 2738:2 2739:2 2740:0 2741:2 2742:2 2743:2 2744:2 2745:2 2746:2 2747:2 2748:2 2749:2 2750:0 2751:2 2752:2 2753:2 2754:2 2755:2 2756:2 2757:2 2758:2 2759:0 2760:2 2761:2 2762:2 2763:2 2764:2 2765:2 2766:2 2767:2 2768:2 2769:0 2770:2 2771:2 2772:2 2773:2 2774:2 2775:2 2776:2 2777:2 2778:2 2779:0 2780:2 2781:2 2782:2 2783:2 2784:2 2785:2 2786:2 2787:2 2788:0 2789:2 2790:2 2791:2 2792:2 2793:2 2794:2 2795:2 2796:2 2797:0 2798:2 2799:2 2800:2 2801:2 2802:2 2803:2 2804:2 2805:2 2806:2 2807:0 2808:2 2809:2 2810:2 2811:2 2812:2 2813:2 2814:2 2815:2 2816:0 2817:2 2818:2 2819:2 2820:2 2821:2 2822:2 2823:2 2824:2 2825:0 2826:2 2827:2 2828:2 2829:2 2830:2 2831:2 2832:2 2833:2 2834:0 2835:2 2836:2 2837:2 2838:2 2839:2 2840:2 2841:2 2842:2 2843:0 2844:2 2845:2 2846:2 2847:2 2848:2 2849:2 2850:2 2851:0 2852:2 2853:2 2854:2 2855:2 2856:2 2857:2 2858:2 2859:2 2860:0 2861:2 2862:2 2863:2 2864:2 2865:2 2866:2 2867:2 2868:0 2869:2 2870:2 2871:2 2872:2 2873:2 2874:2 2875:2 2876:0 2877:2 2878:2 2879:2 2880:2 2881:2 2882:2 2883:2 2884:0 2885:2 2886:2 2887:2 2888:2 2889:2 2890:2 2891:2 2892:0 2893:2 2894:2 2895:2 2896:2 2897:2 2898:2 2899:2 2900:0 2901:2 2902:2 2903:2 2904:2 2905:2 2906:2 2907:0 2908:2 2909:2 2910:2 2911:2 2912:2 2913:2 2914:2 2915:0 2916:2 2917:2 2918:2 2919:2 2920:2 2921:2 2922:0 2923:2 2924:2 2925:2 2926:2 2927:2 2928:2 2929:0 2930:2 2931:2 2932:2 2933:2 2934:2 2935:0 2936:2 2937:2 2938:2 2939:2 2940:2 2941:2 2942:0 2943:2 2944:2 2945:2 2946:2 2947:2 2948:0 2949:2 2950:2 2951:2 2952:2 2953:2 2954:2 2955:0 2956:2 2957:2 2958:2 2959:2 2960:0 2961:2 2962:2 2963:2 2964:2 2965:2 2966:0 2967:2 2968:2 2969:2 2970:2 2971:2 2972:0 2973:2 2974:2 2975:2 2976:2 2977:0 2978:2 2979:2 2980:2 2981:0 2982:2 2983:2 2984:2 2985:2 2986:0 2987:2 2988:2 2989:2 2990:0 2991:2 2992:2 2993:0 2994:2 2995:2 2996:0 2997:2 2998:2 2999:0 3000:2 3001:0 3002:2 3003:0 3004:2 3005:0 3006:0 3007:2 3008:0 3009:0 3010:2 3011:0 3012:0 3013:0 3014:2 #
-5.7074540931817353741489773355511e-05 1:0 2:0 3:0 4:0 5:0 6:0 7:0 8:0 9:0 10:0 11:0 12:0 13:0 14:0 15:0 16:0 17:0 18:0 19:0 20:0 21:0 22:0 23:0 24:0 25:0 26:0 27:0 28:0 29:0 30:0 31:0 32:0 33:0 34:0 35:0 36:0 37:0 38:0 39:0 40:0 41:0 42:0 43:0 44:0 45:0 46:0 47:0 48:0 49:0 50:0 51:0 52:0 53:0 54:0 55:0 56:0 57:0 58:0 59:0 60:0 61:0 62:0 63:0 64:0 65:0 66:0 67:0 68:0 69:0 70:0 71:0 72:0 73:0 74:0 75:0 76:0 77:0 78:0 79:0 80:0 81:0 82:0 83:0 84:0 85:0 86:0 87:0 88:0 89:0 90:0 91:0 92:0 93:0 94:0 95:0 96:0 97:0 98:0 99:0 100:0 101:0 102:0 103:0 104:0 105:0 106:0 107:0 108:0 109:0 110:0 111:0 112:0 113:0 114:0 115:0 116:0 117:0 118:0 119:0 120:0 121:0 122:0 123:0 124:0 125:0 126:0 127:0 128:0 129:0 130:0 131:0 132:0 133:0 134:0 135:0 136:0 137:0 138:0 139:0 140:0 141:0 142:0 143:0 144:0 145:0 146:0 147:0 148:0 149:0 150:0 151:0 152:0 153:0 154:0 155:0 156:0 157:0 158:0 159:0 160:0 161:0 162:0 163:0 164:0 165:0 166:0 167:0 168:0 169:0 170:0 171:0 172:0 173:0 174:0 175:0 176:0 177:0 178:0 179:0 180:0 181:0 182:0 183:0 184:0 185:0 186:0 187:0 188:0 189:0 190:0 191:0 192:0 193:0 194:0 195:0 196:0 197:0 198:0 199:0 200:0 201:0 202:0 203:0 204:0 205:0 206:0 207:0 208:0 209:0 210:0 211:0 212:0 213:0 214:0 215:0 216:0 217:0 218:0 219:0 220:0 221:0 222:0 223:0 224:0 225:0 226:0 227:0 228:0 229:0 230:0 231:0 232:0 233:0 234:0 235:0 236:0 237:0 238:0 239:0 240:0 241:0 242:0 243:0 244:0 245:0 246:0 247:0 248:0 249:0 250:0 251:0 252:0 253:0 254:0 255:0 256:0 257:0 258:0 259:0 260:0 261:0 262:0 263:0 264:0 265:0 266:0 267:0 268:0 269:0 270:0 271:0 272:0 273:0 274:0 275:0 276:0 277:0 278:0 279:0 280:0 281:0 282:0 283:0 284:0 285:0 286:0 287:0 288:0 289:0 290:0 291:0 292:0 293:0 294:0 295:0 296:2 297:2 298:2 299:2 300:2 301:2 302:2 303:2 304:2 305:2 306:2 307:2 308:2 309:2 310:2 311:2 312:0 313:2 314:2 315:2 316:2 317:2 318:2 319:2 320:2 321:2 322:2 323:2 324:2 325:2 326:2 327:2 328:2 329:2 330:2 331:2 332:2 333:2 334:4 335:4 336:4 337:0 338:0 339:0 340:0 341:0 342:0 343:0 344:0 345:0 346:0 347:0 348:0 349:0 350:0 351:0 352:0 353:0 354:0 355:0 356:0 357:0 358:0 359:0 360:0 361:0 362:0 363:0 364:0 365:0 366:0 367:0 368:0 369:0 370:0 371:0 372:0 373:0 374:0 375:2 376:2 377:4 378:4 379:4 380:4 381:2 382:2 383:2 384:2 385:2 386:2 387:2 388:2 389:2 390:2 391:2 392:2 393:2 394:2 395:2 396:2 397:2 398:2 399:2 400:2 401:2 402:2 403:2 404:2 405:2 406:2 407:2 408:2 409:2 410:2 411:4 412:4 413:4 414:4 415:4 416:4 417:4 418:4 419:4 420:4 421:2 422:2 423:4 424:4 425:4 426:4 427:4 428:4 429:4 430:4 431:4 432:4 433:4 434:4 435:4 436:4 437:4 438:4 439:4 440:4 441:4 442:4 443:4 444:2 445:2 446:2 447:2 448:2 449:2 450:2 451:2 452:2 453:2 454:4 455:4 456:4 457:4 458:4 459:4 460:4 461:4 462:4 463:4 464:4 465:4 466:4 467:4 468:4 469:4 470:4 471:4 472:4 473:4 474:4 475:4 476:4 477:4 478:4 479:4 480:4 481:2 482:2 483:2 484:2 485:2 486:2 487:2 488:4 489:4 490:4 491:2 492:2 493:2 494:2 495:4 496:4 497:0 498:4 499:4 500:4 501:4 502:4 503:4 504:4 505:4 506:4 507:4 508:4 509:4 510:4 511:4 512:4 513:4 514:4 515:4 516:2 517:2 518:2 519:0 520:0 521:0 522:2 523:0 524:0 525:0 526:2 527:4 528:4 529:4 530:4 531:4 532:4 533:4 534:4 535:4 536:4 537:4 538:0 539:4 540:4 541:4 542:4 543:4 544:4 545:4 546:4 547:4 548:4 549:4 550:4 551:4 552:4 553:4 554:4 555:4 556:4 557:4 558:4 559:4 560:4 561:4 562:4 563:4 564:4 565:0 566:4 567:4 568:0 569:4 570:4 571:4 572:4 573:4 574:4 575:4 576:4 577:4 578:4 579:4 580:4 581:4 582:4 583:4 584:4 585:4 586:4 587:4 588:4 589:2 590:2 591:2 592:2 593:2 594:2 595:2 596:2 597:2 598:2 599:2 600:2 601:2 602:2 603:2 604:2 605:2 606:2 607:2 608:2 609:2 610:2 611:2 612:0 613:0 614:0 615:0 616:0 617:0 618:0 619:0 620:0 621:0 622:0 623:0 624:0 625:0 626:0 627:0 628:0 629:0 630:0 631:0 632:0 633:0 634:0 635:0 636:0 637:0 638:0 639:0 640:0 641:0 642:0 643:0 644:2 645:2 646:2 647:2 648:2 649:2 650:2 651:2 652:2 653:0 654:0 655:0 656:0 657:0 658:0 659:0 660:0 661:0 662:0 663:0 664:0 665:0 666:0 667:0 668:0 669:0 670:0 671:0 672:0 673:0 674:0 675:0 676:0 677:0 678:0 679:0 680:0 681:0 682:0 683:0 684:0 685:0 686:0 687:0 688:2 689:2 690:2 691:2 692:2 693:2 694:2 695:2 696:2 697:2 698:2 699:2 700:2 701:2 702:2 703:4 704:4 705:4 706:4 707:4 708:4 709:4 710:4 711:4 712:4 713:4 714:4 715:4 716:4 717:4 718:4 719:4 720:0 721:2 722:2 723:4 724:4 725:4 726:4 727:4 728:4 729:4 730:4 731:4 732:4 733:4 734:2 735:2 736:2 737:2 738:2 739:2 740:4 741:4 742:4 743:4 744:4 745:4 746:4 747:4 748:4 749:4 750:4 751:4 752:4 753:4 754:4 755:4 756:4 757:4 758:4 759:4 760:4 761:4 762:4 763:4 764:4 765:4 766:4 767:4 768:0 769:0 770:4 771:4 772:4 773:4 774:0 775:0 776:0 777:0 778:0 779:0 780:0 781:0 782:0 783:4 784:4 785:4 786:4 787:4 788:4 789:4 790:4 791:4 792:4 793:4 794:4 795:4 796:4 797:2 798:2 799:4 800:4 801:4 802:4 803:4 804:4 805:2 806:2 807:2 808:2 809:2 810:2 811:2 812:2 813:4 814:4 815:4 816:4 817:2 818:2 819:2 820:2 821:2 822:2 823:2 824:2 825:2 826:2 827:2 828:2 829:2 830:2 831:2 832:4 833:4 834:4 835:2 836:2 837:2 838:0 839:0 840:0 841:0 842:0 843:0 844:0 845:0 846:0 847:2 848:2 849:2 850:2 851:2 852:2 853:2 854:2 855:2 856:2 857:2 858:2 859:2 860:2 861:2 862:0 863:0 864:0 865:2 866:2 867:2 868:2 869:2 870:4 871:4 872:4 873:2 874:2 875:2 876:4 877:4 878:4 879:4 880:4 881:4 882:4 883:4 884:2 885:2 886:2 887:2 888:2 889:2 890:4 891:4 892:4 893:0 894:0 895:0 896:0 897:0 898:0 899:0 900:0 901:0 902:0 903:0 904:0 905:0 906:0 907:0 908:0 909:0 910:2 911:2 912:2 913:4 914:4 915:4 916:4 917:4 918:4 919:4 920:4 921:4 922:4 923:4 924:4 925:4 926:4 927:2 928:2 929:4 930:4 931:4 932:4 933:0 934:0 935:0 936:0 937:0 938:0 939:0 940:0 941:0 942:0 943:0 944:0 945:0 946:0 947:0 948:0 949:0 950:0 951:0 952:4 953:4 954:4 955:4 956:4 957:4 958:4 959:4 960:4 961:4 962:4 963:4 964:4 965:4 966:0 967:4 968:4 969:2 970:2 971:2 972:2 973:2 974:4 975:4 976:4 977:4 978:4 979:4 980:4 981:4 982:4 983:4 984:4 985:4 986:4 987:4 988:4 989:4 990:4 991:4 992:0 993:4 994:4 995:4 996:4 997:4 998:4 999:4 1000:4 1001:4 1002:4 1003:2 1004:2 1005:4 1006:4 1007:4 1008:4 1009:4 1010:2 1011:2 1012:4 1013:4 1014:4 1015:4 1016:4 1017:4 1018:4 1019:4 1020:4 1021:4 1022:4 1023:4 1024:4 1025:4 1026:4 1027:4 1028:4 1029:4 1030:4 1031:4 1032:4 1033:2 1034:2 1035:2 1036:2 1037:2 1038:2 1039:4 1040:4 1041:4 1042:4 1043:4 1044:4 1045:4 1046:4 1047:4 1048:4 1049:4 1050:4 1051:4 1052:4 1053:4 1054:4 1055:4 1056:4 1057:4 1058:4 1059:4 1060:4 1061:4 1062:4 1063:4 1064:4 1065:4 1066:4 1067:4 1068:0 1069:4 1070:4 1071:4 1072:4 1073:4 1074:4 1075:4 1076:4 1077:4 1078:4 1079:4 1080:4 1081:4 1082:4 1083:4 1084:4 1085:4 1086:4 1087:4 1088:0 1089:4 1090:4 1091:4 1092:4 1093:4 1094:4 1095:4 1096:4 1097:0 1098:4 1099:4 1100:4 1101:4 1102:2 1103:2 1104:2 1105:2 1106:2 1107:2 1108:2 1109:0 1110:0 1111:0 1112:2 1113:2 1114:2 1115:0 1116:0 1117:0 1118:0 1119:0 1120:0 1121:0 1122:0 1123:0 1124:0 1125:2 1126:2 1127:2 1128:2 1129:2 1130:2 1131:4 1132:4 1133:4 1134:4 1135:4 1136:0 1137:0 1138:4 1139:4 1140:4 1141:4 1142:4 1143:4 1144:4 1145:4 1146:4 1147:2 1148:2 1149:2 1150:4 1151:4 1152:4 1153:4 1154:4 1155:4 1156:4 1157:4 1158:4 1159:4 1160:4 1161:2 1162:2 1163:2 1164:2 1165:2 1166:2 1167:2 1168:4 1169:4 1170:4 1171:4 1172:4 1173:4 1174:4 1175:4 1176:4 1177:4 1178:4 1179:4 1180:4 1181:4 1182:4 1183:4 1184:4 1185:4 1186:4 1187:4 1188:4 1189:4 1190:4 1191:4 1192:4 1193:4 1194:4 1195:4 1196:4 1197:4 1198:4 1199:4 1200:4 1201:4 1202:4 1203:2 1204:2 1205:2 1206:2 1207:2 1208:0 1209:2 1210:2 1211:4 1212:4 1213:4 1214:4 1215:4 1216:4 1217:4 1218:4 1219:4 1220:4 1221:4 1222:4 1223:4 1224:2 1225:2 1226:2 1227:2 1228:2 1229:2 1230:2 1231:2 1232:2 1233:2 1234:2 1235:2 1236:2 1237:2 1238:2 1239:2 1240:2 1241:2 1242:2 1243:2 1244:2 1245:2 1246:2 1247:2 1248:2 1249:2 1250:2 1251:2 1252:2 1253:2 1254:2 1255:2 1256:2 1257:2 1258:2 1259:4 1260:4 1261:2 1262:2 1263:2 1264:2 1265:2 1266:2 1267:2 1268:2 1269:2 1270:2 1271:2 1272:2 1273:2 1274:2 1275:2 1276:2 1277:2 1278:2 1279:2 1280:2 1281:2 1282:2 1283:2 1284:2 1285:2 1286:4 1287:4 1288:4 1289:2 1290:2 1291:2 1292:2 1293:2 1294:2 1295:2 1296:2 1297:2 1298:2 1299:2 1300:2 1301:2 1302:2 1303:2 1304:2 1305:2 1306:2 1307:2 1308:2 1309:2 1310:2 1311:2 1312:2 1313:2 1314:2 1315:2 1316:2 1317:4 1318:4 1319:4 1320:4 1321:4 1322:4 1323:2 1324:2 1325:2 1326:2 1327:2 1328:2 1329:2 1330:2 1331:2 1332:2 1333:2 1334:2 1335:2 1336:2 1337:2 1338:2 1339:2 1340:2 1341:2 1342:2 1343:2 1344:2 1345:2 1346:2 1347:2 1348:2 1349:2 1350:2 1351:2 1352:0 1353:2 1354:0 1355:0 1356:2 1357:2 1358:2 1359:2 1360:2 1361:2 1362:0 1363:2 1364:2 1365:2 1366:2 1367:2 1368:2 1369:2 1370:2 1371:2 1372:2 1373:2 1374:2 1375:2 1376:2 1377:2 1378:2 1379:2 1380:2 1381:2 1382:2 1383:2 1384:2 1385:2 1386:2 1387:2 1388:2 1389:2 1390:2 1391:2 1392:2 1393:2 1394:2 1395:2 1396:2 1397:2 1398:2 1399:2 1400:2 1401:2 1402:0 1403:2 1404:2 1405:2 1406:2 1407:2 1408:2 1409:2 1410:2 1411:2 1412:2 1413:2 1414:2 1415:2 1416:2 1417:2 1418:2 1419:2 1420:2 1421:2 1422:2 1423:2 1424:2 1425:2 1426:2 1427:2 1428:2 1429:2 1430:2 1431:2 1432:2 1433:2 1434:0 1435:0 1436:0 1437:2 1438:2 1439:2 1440:2 1441:2 1442:2 1443:4 1444:4 1445:4 1446:2 1447:2 1448:2 1449:2 1450:2 1451:2 1452:2 1453:2 1454:2 1455:2 1456:2 1457:2 1458:2 1459:2 1460:2 1461:2 1462:2 1463:2 1464:2 1465:2 1466:2 1467:2 1468:2 1469:2 1470:2 1471:2 1472:2 1473:2 1474:2 1475:2 1476:2 1477:2 1478:2 1479:0 1480:2 1481:0 1482:2 1483:2 1484:2 1485:2 1486:2 1487:2 1488:2 1489:2 1490:0 1491:0 1492:0 1493:0 1494:2 1495:2 1496:2 1497:2 1498:2 1499:2 1500:2 1501:2 1502:2 1503:2 1504:2 1505:2 1506:2 1507:2 1508:2 1509:2 1510:2 1511:2 1512:2 1513:2 1514:2 1515:2 1516:2 1517:2 1518:0 1519:0 1520:0 1521:0 1522:0 1523:0 1524:0 1525:0 1526:0 1527:0 1528:0 1529:0 1530:0 1531:0 1532:0 1533:0 1534:0 1535:0 1536:0 1537:2 1538:2 1539:2 1540:2 1541:2 1542:2 1543:2 1544:2 1545:2 1546:2 1547:2 1548:2 1549:4 1550:4 1551:4 1552:2 1553:2 1554:4 1555:4 1556:4 1557:4 1558:4 1559:2 1560:2 1561:2 1562:2 1563:2 1564:2 1565:2 1566:2 1567:4 1568:4 1569:2 1570:2 1571:2 1572:2 1573:2 1574:2 1575:2 1576:2 1577:2 1578:2 1579:2 1580:2 1581:2 1582:2 1583:2 1584:2 1585:2 1586:2 1587:2 1588:2 1589:2 1590:2 1591:2 1592:2 1593:2 1594:2 1595:2 1596:2 1597:2 1598:2 1599:2 1600:2 1601:2 1602:2 1603:2 1604:2 1605:2 1606:2 1607:2 1608:2 1609:2 1610:2 1611:2 1612:2 1613:2 1614:2 1615:2 1616:2 1617:2 1618:2 1619:2 1620:2 1621:2 1622:2 1623:2 1624:2 1625:2 1626:2 1627:2 1628:2 1629:4 1630:4 1631:4 1632:4 1633:4 1634:4 1635:4 1636:4 1637:4 1638:4 1639:4 1640:4 1641:4 1642:4 1643:2 1644:2 1645:2 1646:2 1647:2 1648:2 1649:2 1650:2 1651:0 1652:0 1653:0 1654:0 1655:2 1656:2 1657:2 1658:2 1659:2 1660:2 1661:2 1662:2 1663:2 1664:2 1665:2 1666:2 1667:2 1668:2 1669:4 1670:4 1671:4 1672:4 1673:4 1674:4 1675:4 1676:4 1677:4 1678:4 1679:4 1680:2 1681:2 1682:2 1683:2 1684:4 1685:4 1686:4 1687:4 1688:4 1689:4 1690:4 1691:4 1692:4 1693:4 1694:4 1695:4 1696:4 1697:4 1698:4 1699:4 1700:4 1701:4 1702:2 1703:2 1704:2 1705:2 1706:2 1707:2 1708:2 1709:2 1710:2 1711:2 1712:2 1713:4 1714:4 1715:4 1716:4 1717:4 1718:4 1719:4 1720:4 1721:4 1722:4 1723:4 1724:4 1725:4 1726:4 1727:4 1728:4 1729:4 1730:4 1731:4 1732:4 1733:4 1734:4 1735:4 1736:4 1737:4 1738:2 1739:2 1740:2 1741:2 1742:2 1743:2 1744:2 1745:2 1746:2 1747:2 1748:2 1749:2 1750:0 1751:4 1752:0 1753:4 1754:4 1755:0 1756:4 1757:4 1758:4 1759:4 1760:4 1761:4 1762:4 1763:4 1764:4 1765:4 1766:4 1767:4 1768:4 1769:4 1770:4 1771:4 1772:4 1773:4 1774:4 1775:2 1776:2 1777:2 1778:2 1779:2 1780:2 1781:2 1782:2 1783:4 1784:4 1785:4 1786:4 1787:4 1788:4 1789:4 1790:4 1791:4 1792:4 1793:4 1794:4 1795:4 1796:4 1797:4 1798:4 1799:4 1800:4 1801:4 1802:4 1803:4 1804:4 1805:4 1806:4 1807:4 1808:4 1809:4 1810:4 1811:4 1812:4 1813:4 1814:4 1815:4 1816:4 1817:4 1818:4 1819:4 1820:4 1821:4 1822:4 1823:4 1824:4 1825:4 1826:4 1827:4 1828:4 1829:4 1830:4 1831:4 1832:4 1833:4 1834:4 1835:4 1836:4 1837:4 1838:4 1839:4 1840:4 1841:4 1842:4 1843:4 1844:2 1845:2 1846:2 1847:2 1848:2 1849:2 1850:2 1851:2 1852:2 1853:2 1854:2 1855:2 1856:2 1857:2 1858:2 1859:2 1860:2 1861:0 1862:2 1863:2 1864:2 1865:2 1866:2 1867:2 1868:2 1869:2 1870:2 1871:2 1872:2 1873:2 1874:2 1875:2 1876:2 1877:2 1878:2 1879:2 1880:2 1881:2 1882:2 1883:2 1884:2 1885:2 1886:2 1887:2 1888:4 1889:4 1890:4 1891:4 1892:4 1893:4 1894:4 1895:4 1896:4 1897:4 1898:4 1899:4 1900:4 1901:4 1902:4 1903:4 1904:2 1905:2 1906:2 1907:4 1908:4 1909:4 1910:4 1911:4 1912:4 1913:4 1914:4 1915:4 1916:4 1917:4 1918:2 1919:2 1920:2 1921:2 1922:2 1923:2 1924:2 1925:2 1926:2 1927:2 1928:2 1929:2 1930:4 1931:4 1932:4 1933:4 1934:4 1935:4 1936:4 1937:4 1938:4 1939:4 1940:4 1941:4 1942:4 1943:4 1944:4 1945:4 1946:4 1947:4 1948:4 1949:4 1950:4 1951:4 1952:4 1953:4 1954:4 1955:4 1956:4 1957:4 1958:4 1959:4 1960:4 1961:4 1962:4 1963:4 1964:4 1965:4 1966:4 1967:0 1968:4 1969:4 1970:4 1971:0 1972:4 1973:2 1974:2 1975:4 1976:4 1977:4 1978:4 1979:4 1980:4 1981:4 1982:4 1983:4 1984:2 1985:2 1986:2 1987:2 1988:2 1989:2 1990:2 1991:2 1992:2 1993:2 1994:2 1995:2 1996:2 1997:0 1998:2 1999:2 2000:2 2001:2 2002:2 2003:4 2004:4 2005:4 2006:2 2007:2 2008:2 2009:2 2010:2 2011:2 2012:2 2013:2 2014:2 2015:4 2016:4 2017:4 2018:4 2019:4 2020:4 2021:4 2022:4 2023:4 2024:4 2025:4 2026:4 2027:4 2028:4 2029:4 2030:4 2031:4 2032:4 2033:4 2034:4 2035:2 2036:2 2037:2 2038:2 2039:2 2040:4 2041:4 2042:4 2043:4 2044:4 2045:4 2046:4 2047:4 2048:4 2049:4 2050:4 2051:4 2052:4 2053:4 2054:4 2055:4 2056:4 2057:4 2058:4 2059:4 2060:4 2061:4 2062:4 2063:4 2064:4 2065:4 2066:4 2067:4 2068:2 2069:2 2070:4 2071:4 2072:4 2073:4 2074:4 2075:2 2076:2 2077:4 2078:4 2079:4 2080:4 2081:4 2082:4 2083:0 2084:0 2085:4 2086:4 2087:4 2088:4 2089:4 2090:4 2091:4 2092:4 2093:4 2094:4 2095:4 2096:4 2097:4 2098:4 2099:4 2100:4 2101:4 2102:2 2103:2 2104:0 2105:0 2106:0 2107:0 2108:0 2109:0 2110:0 2111:0 2112:0 2113:0 2114:0 2115:0 2116:0 2117:0 2118:0 2119:0 2120:0 2121:0 2122:0 2123:0 2124:0 2125:0 2126:0 2127:0 2128:0 2129:0 2130:0 2131:0 2132:0 2133:0 2134:0 2135:2 2136:2 2137:2 2138:2 2139:2 2140:4 2141:4 2142:4 2143:0 2144:4 2145:0 2146:4 2147:4 2148:4 2149:4 2150:4 2151:4 2152:4 2153:4 2154:4 2155:4 2156:4 2157:4 2158:4 2159:4 2160:2 2161:2 2162:4 2163:0 2164:0 2165:4 2166:4 2167:4 2168:4 2169:4 2170:4 2171:0 2172:4 2173:4 2174:4 2175:4 2176:4 2177:4 2178:4 2179:4 2180:4 2181:0 2182:4 2183:0 2184:0 2185:4 2186:4 2187:4 2188:4 2189:4 2190:4 2191:4 2192:4 2193:4 2194:4 2195:4 2196:4 2197:4 2198:4 2199:4 2200:4 2201:2 2202:2 2203:2 2204:2 2205:2 2206:2 2207:2 2208:2 2209:2 2210:2 2211:2 2212:2 2213:2 2214:2 2215:2 2216:2 2217:2 2218:2 2219:2 2220:2 2221:2 2222:2 2223:4 2224:4 2225:4 2226:4 2227:4 2228:4 2229:4 2230:4 2231:0 2232:4 2233:4 2234:4 2235:4 2236:4 2237:4 2238:4 2239:2 2240:2 2241:2 2242:2 2243:4 2244:4 2245:4 2246:4 2247:4 2248:4 2249:4 2250:4 2251:4 2252:2 2253:2 2254:2 2255:2 2256:2 2257:2 2258:2 2259:0 2260:2 2261:2 2262:2 2263:2 2264:2 2265:2 2266:2 2267:2 2268:2 2269:2 2270:2 2271:2 2272:2 2273:2 2274:0 2275:2 2276:4 2277:4 2278:4 2279:4 2280:4 2281:4 2282:4 2283:4 2284:4 2285:4 2286:4 2287:4 2288:4 2289:4 2290:4 2291:4 2292:4 2293:4 2294:4 2295:4 2296:4 2297:4 2298:4 2299:4 2300:4 2301:4 2302:4 2303:4 2304:4 2305:4 2306:4 2307:4 2308:4 2309:4 2310:2 2311:2 2312:2 2313:2 2314:2 2315:2 2316:2 2317:2 2318:4 2319:4 2320:4 2321:4 2322:4 2323:4 2324:4 2325:4 2326:4 2327:4 2328:4 2329:4 2330:4 2331:4 2332:2 2333:4 2334:4 2335:4 2336:2 2337:2 2338:2 2339:2 2340:2 2341:4 2342:4 2343:4 2344:4 2345:4 2346:0 2347:4 2348:4 2349:4 2350:4 2351:4 2352:4 2353:4 2354:4 2355:4 2356:2 2357:2 2358:2 2359:2 2360:2 2361:2 2362:2 2363:2 2364:2 2365:4 2366:4 2367:4 2368:4 2369:4 2370:4 2371:4 2372:4 2373:4 2374:4 2375:2 2376:2 2377:2 2378:2 2379:2 2380:2 2381:2 2382:2 2383:2 2384:2 2385:2 2386:2 2387:4 2388:4 2389:4 2390:4 2391:4 2392:4 2393:4 2394:4 2395:0 2396:0 2397:0 2398:0 2399:0 2400:4 2401:4 2402:4 2403:4 2404:2 2405:2 2406:2 2407:2 2408:2 2409:2 2410:2 2411:2 2412:4 2413:4 2414:4 2415:4 2416:4 2417:4 2418:4 2419:4 2420:4 2421:4 2422:4 2423:4 2424:4 2425:4 2426:4 2427:4 2428:4 2429:2 2430:2 2431:2 2432:2 2433:2 2434:2 2435:2 2436:2 2437:2 2438:2 2439:2 2440:2 2441:2 2442:2 2443:2 2444:2 2445:2 2446:2 2447:2 2448:2 2449:2 2450:2 2451:4 2452:4 2453:4 2454:4 2455:0 2456:4 2457:4 2458:4 2459:4 2460:4 2461:4 2462:4 2463:0 2464:0 2465:4 2466:4 2467:4 2468:2 2469:2 2470:0 2471:2 2472:2 2473:2 2474:2 2475:2 2476:2 2477:2 2478:2 2479:2 2480:2 2481:2 2482:2 2483:2 2484:2 2485:2 2486:2 2487:2 2488:2 2489:2 2490:2 2491:2 2492:2 2493:2 2494:2 2495:2 2496:2 2497:2 2498:2 2499:2 2500:4 2501:4 2502:4 2503:2 2504:2 2505:2 2506:2 2507:2 2508:2 2509:2 2510:2 2511:2 2512:2 2513:2 2514:2 2515:2 2516:2 2517:2 2518:2 2519:0 2520:4 2521:4 2522:2 2523:2 2524:2 2525:2 2526:2 2527:2 2528:2 2529:2 2530:2 2531:2 2532:2 2533:0 2534:2 2535:2 2536:2 2537:2 2538:0 2539:0 2540:0 2541:0 2542:2 2543:2 2544:0 2545:0 2546:0 2547:0 2548:2 2549:2 2550:2 2551:2 2552:2 2553:2 2554:2 2555:4 2556:4 2557:0 2558:4 2559:2 2560:2 2561:2 2562:2 2563:2 2564:2 2565:2 2566:2 2567:2 2568:0 2569:0 2570:2 2571:0 2572:2 2573:2 2574:2 2575:2 2576:2 2577:2 2578:2 2579:2 2580:0 2581:0 2582:0 2583:0 2584:0 2585:0 2586:2 2587:2 2588:2 2589:2 2590:2 2591:0 2592:0 2593:0 2594:0 2595:2 2596:0 2597:2 2598:2 2599:2 2600:2 2601:2 2602:0 2603:2 2604:0 2605:2 2606:2 2607:2 2608:2 2609:2 2610:0 2611:0 2612:2 2613:2 2614:2 2615:2 2616:2 2617:0 2618:0 2619:0 2620:2 2621:2 2622:2 2623:2 2624:2 2625:0 2626:2 2627:2 2628:2 2629:2 2630:2 2631:0 2632:0 2633:0 2634:2 2635:2 2636:2 2637:2 2638:2 2639:0 2640:2 2641:2 2642:2 2643:2 2644:0 2645:2 2646:0 2647:0 2648:2 2649:2 2650:2 2651:2 2652:2 2653:2 2654:2 2655:0 2656:0 2657:2 2658:2 2659:0 2660:2 2661:2 2662:2 2663:2 2664:2 2665:0 2666:2 2667:2 2668:2 2669:2 2670:2 2671:0 2672:2 2673:0 2674:2 2675:2 2676:2 2677:2 2678:2 2679:2 2680:0 2681:0 2682:2 2683:2 2684:0 2685:2 2686:2 2687:2 2688:2 2689:2 2690:0 2691:2 2692:2 2693:2 2694:2 2695:0 2696:2 2697:2 2698:0 2699:2 2700:2 2701:2 2702:2 2703:2 2704:2 2705:2 2706:0 2707:2 2708:2 2709:2 2710:2 2711:2 2712:2 2713:2 2714:0 2715:0 2716:2 2717:2 2718:2 2719:2 2720:0 2721:2 2722:0 2723:0 2724:2 2725:2 2726:2 2727:2 2728:2 2729:2 2730:2 2731:0 2732:0 2733:2 2734:2 2735:2 2736:2 2737:2 2738:2 2739:0 2740:0 2741:2 2742:2 2743:2 2744:2 2745:0 2746:0 2747:0 2748:0 2749:0 2750:2 2751:2 2752:2 2753:0 2754:0 2755:0 2756:0 2757:2 2758:2 2759:2 2760:2 2761:2 2762:2 2763:0 2764:0 2765:0 2766:2 2767:2 2768:2 2769:0 2770:0 2771:0 2772:0 2773:2 2774:2 2775:2 2776:2 2777:0 2778:0 2779:0 2780:0 2781:2 2782:2 2783:2 2784:2 2785:2 2786:2 2787:0 2788:0 2789:2 2790:2 2791:2 2792:2 2793:0 2794:2 2795:0 2796:0 2797:2 2798:2 2799:2 2800:2 2801:2 2802:2 2803:0 2804:0 2805:2 2806:2 2807:0 2808:2 2809:2 2810:2 2811:0 2812:2 2813:2 2814:2 2815:2 2816:2 2817:2 2818:0 2819:0 2820:2 2821:2 2822:2 2823:2 2824:2 2825:0 2826:0 2827:2 2828:2 2829:0 2830:2 2831:2 2832:2 2833:2 2834:0 2835:2 2836:2 2837:2 2838:2 2839:0 2840:2 2841:0 2842:0 2843:2 2844:2 2845:2 2846:2 2847:2 2848:2 2849:0 2850:0 2851:2 2852:2 2853:2 2854:2 2855:2 2856:2 2857:2 2858:0 2859:2 2860:2 2861:2 2862:2 2863:2 2864:2 2865:0 2866:2 2867:2 2868:2 2869:0 2870:2 2871:2 2872:0 2873:2 2874:2 2875:2 2876:2 2877:2 2878:0 2879:0 2880:2 2881:2 2882:2 2883:2 2884:0 2885:2 2886:2 2887:2 2888:0 2889:2 2890:2 2891:0 2892:2 2893:2 2894:2 2895:2 2896:2 2897:0 2898:2 2899:2 2900:0 2901:2 2902:2 2903:2 2904:2 2905:2 2906:2 2907:0 2908:2 2909:2 2910:2 2911:2 2912:2 2913:0 2914:2 2915:2 2916:2 2917:0 2918:0 2919:0 2920:0 2921:0 2922:0 2923:0 2924:0 2925:0 2926:0 2927:0 2928:2 2929:2 2930:2 2931:2 2932:0 2933:2 2934:2 2935:2 2936:2 2937:2 2938:2 2939:2 2940:2 2941:2 2942:2 2943:2 2944:2 2945:2 2946:2 2947:2 2948:2 2949:2 2950:2 2951:2 2952:2 2953:2 2954:2 2955:2 2956:2 2957:2 2958:2 2959:0 2960:2 2961:0 2962:2 2963:2 2964:2 2965:2 2966:2 2967:2 2968:2 2969:0 2970:2 2971:2 2972:2 2973:2 2974:2 2975:2 2976:2 2977:2 2978:2 2979:2 2980:2 2981:2 2982:2 2983:2 2984:2 2985:2 2986:4 2987:4 2988:4 2989:2 2990:2 2991:0 2992:0 2993:0 2994:0 2995:0 2996:0 2997:0 2998:0 2999:0 3000:0 3001:0 3002:0 3003:0 3004:0 3005:0 3006:0 3007:0 3008:0 3009:0 3010:0 3011:0 3012:0 3013:0 3014:0 #
-5.7074540931817353741489773355511e-05 1:0 2:0 3:0 4:0 5:0 6:0 7:0 8:0 9:0 10:0 11:0 12:0 13:0 14:0 15:0 16:0 17:0 18:0 19:0 20:0 21:0 22:0 23:0 24:0 25:0 26:0 27:0 28:0 29:0 30:0 31:0 32:0 33:0 34:0 35:0 36:0 37:0 38:0 39:0 40:0 41:0 42:0 43:0 44:0 45:0 46:0 47:0 48:0 49:0 50:0 51:0 52:0 53:0 54:0 55:0 56:0 57:0 58:0 59:0 60:0 61:0 62:0 63:0 64:0 65:0 66:0 67:0 68:0 69:0 70:0 71:0 72:0 73:0 74:0 75:0 76:0 77:0 78:0 79:0 80:0 81:0 82:0 83:0 84:0 85:0 86:0 87:0 88:0 89:0 90:0 91:0 92:0 93:0 94:0 95:0 96:0 97:0 98:0 99:0 100:0 101:0 102:0 103:0 104:0 105:0 106:0 107:0 108:0 109:0 110:0 111:0 112:0 113:0 114:0 115:0 116:0 117:0 118:0 119:0 120:0 121:0 122:0 123:0 124:0 125:0 126:0 127:0 128:0 129:0 130:0 131:0 132:0 133:0 134:0 135:0 136:0 137:0 138:0 139:0 140:0 141:0 142:0 143:0 144:0 145:0 146:0 147:0 148:0 149:0 150:0 151:0 152:0 153:0 154:0 155:0 156:0 157:0 158:0 159:0 160:0 161:0 162:0 163:0 164:0 165:0 166:0 167:0 168:0 169:0 170:0 171:0 172:0 173:0 174:0 175:0 176:0 177:0 178:0 179:0 180:0 181:0 182:0 183:0 184:0 185:0 186:0 187:0 188:0 189:0 190:0 191:0 192:0 193:0 194:0 195:0 196:0 197:0 198:0 199:0 200:0 201:0 202:0 203:0 204:0 205:0 206:0 207:0 208:0 209:0 210:0 211:0 212:0 213:0 214:0 215:0 216:0 217:0 218:0 219:0 220:0 221:0 222:0 223:0 224:0 225:0 226:0 227:0 228:0 229:0 230:0 231:0 232:0 233:0 234:0 235:0 236:0 237:0 238:0 239:0 240:0 241:0 242:0 243:0 244:0 245:0 246:0 247:0 248:0 249:0 250:0 251:0 252:0 253:0 254:0 255:0 256:0 257:0 258:0 259:0 260:0 261:0 262:0 263:0 264:0 265:0 266:0 267:0 268:0 269:0 270:0 271:0 272:0 273:0 274:0 275:0 276:0 277:0 278:0 279:0 280:0 281:0 282:0 283:0 284:0 285:0 286:0 287:0 288:0 289:2 290:2 291:2 292:2 293:2 294:2 295:2 296:2 297:2 298:2 299:2 300:2 301:2 302:2 303:2 304:2 305:2 306:2 307:2 308:2 309:2 310:2 311:2 312:0 313:0 314:2 315:2 316:2 317:2 318:2 319:0 320:2 321:2 322:2 323:2 324:2 325:2 326:2 327:2 328:2 329:2 330:2 331:2 332:2 333:2 334:2 335:2 336:2 337:2 338:2 339:2 340:2 341:2 342:2 343:2 344:2 345:2 346:2 347:2 348:2 349:4 350:4 351:4 352:2 353:2 354:2 355:2 356:2 357:2 358:2 359:2 360:2 361:2 362:2 363:2 364:2 365:2 366:2 367:0 368:0 369:0 370:0 371:0 372:0 373:0 374:0 375:2 376:2 377:4 378:4 379:4 380:4 381:4 382:4 383:4 384:4 385:4 386:2 387:2 388:2 389:2 390:2 391:2 392:2 393:2 394:2 395:2 396:2 397:2 398:2 399:2 400:2 401:2 402:2 403:2 404:2 405:2 406:2 407:2 408:2 409:2 410:2 411:4 412:4 413:4 414:4 415:4 416:4 417:4 418:4 419:4 420:4 421:4 422:2 423:2 424:4 425:4 426:4 427:4 428:4 429:4 430:4 431:4 432:4 433:4 434:4 435:4 436:4 437:4 438:4 439:4 440:4 441:4 442:4 443:4 444:2 445:2 446:2 447:2 448:2 449:2 450:2 451:2 452:2 453:4 454:4 455:4 456:4 457:4 458:4 459:4 460:4 461:4 462:4 463:4 464:4 465:4 466:4 467:4 468:4 469:4 470:4 471:4 472:4 473:4 474:4 475:4 476:4 477:4 478:4 479:4 480:2 481:2 482:2 483:2 484:2 485:2 486:2 487:2 488:2 489:2 490:2 491:2 492:2 493:2 494:2 495:4 496:4 497:4 498:4 499:4 500:4 501:4 502:4 503:4 504:4 505:4 506:4 507:4 508:4 509:4 510:4 511:4 512:4 513:4 514:4 515:4 516:2 517:2 518:2 519:2 520:2 521:2 522:2 523:2 524:2 525:2 526:2 527:2 528:4 529:4 530:4 531:4 532:4 533:4 534:4 535:4 536:4 537:4 538:0 539:4 540:4 541:4 542:4 543:4 544:4 545:4 546:4 547:4 548:4 549:4 550:4 551:2 552:2 553:4 554:4 555:4 556:4 557:4 558:4 559:4 560:4 561:4 562:4 563:4 564:4 565:4 566:4 567:4 568:0 569:4 570:4 571:4 572:4 573:4 574:4 575:4 576:4 577:4 578:4 579:4 580:4 581:4 582:4 583:4 584:4 585:4 586:4 587:4 588:4 589:4 590:4 591:4 592:2 593:2 594:2 595:2 596:2 597:2 598:2 599:2 600:2 601:2 602:2 603:2 604:2 605:2 606:2 607:0 608:0 609:0 610:0 611:2 612:0 613:2 614:2 615:2 616:0 617:0 618:0 619:0 620:0 621:0 622:0 623:0 624:0 625:0 626:0 627:0 628:0 629:0 630:0 631:0 632:0 633:2 634:2 635:2 636:2 637:2 638:2 639:2 640:2 641:2 642:2 643:2 644:2 645:2 646:2 647:2 648:2 649:2 650:2 651:2 652:2 653:0 654:0 655:0 656:0 657:0 658:0 659:0 660:0 661:0 662:0 663:0 664:0 665:0 666:0 667:0 668:0 669:0 670:0 671:0 672:0 673:0 674:0 675:0 676:0 677:0 678:0 679:0 680:0 681:0 682:0 683:0 684:0 685:0 686:0 687:0 688:2 689:2 690:2 691:2 692:2 693:2 694:2 695:2 696:2 697:2 698:2 699:2 700:2 701:2 702:2 703:2 704:4 705:4 706:4 707:4 708:4 709:4 710:4 711:4 712:4 713:4 714:4 715:4 716:4 717:4 718:4 719:4 720:2 721:2 722:2 723:4 724:4 725:4 726:4 727:4 728:4 729:4 730:4 731:4 732:4 733:4 734:2 735:2 736:2 737:2 738:2 739:2 740:2 741:4 742:4 743:4 744:4 745:4 746:4 747:4 748:4 749:4 750:4 751:4 752:4 753:4 754:4 755:4 756:4 757:4 758:4 759:4 760:4 761:4 762:4 763:4 764:4 765:4 766:4 767:4 768:4 769:0 770:4 771:4 772:4 773:4 774:0 775:0 776:0 777:0 778:0 779:0 780:0 781:0 782:0 783:4 784:2 785:2 786:4 787:4 788:4 789:4 790:4 791:4 792:4 793:4 794:0 795:4 796:4 797:4 798:4 799:4 800:4 801:4 802:4 803:4 804:4 805:2 806:2 807:2 808:2 809:2 810:2 811:2 812:2 813:2 814:2 815:2 816:2 817:2 818:4 819:4 820:4 821:4 822:2 823:2 824:2 825:2 826:2 827:2 828:2 829:2 830:0 831:0 832:0 833:0 834:0 835:0 836:2 837:2 838:0 839:0 840:0 841:0 842:0 843:0 844:0 845:0 846:0 847:2 848:2 849:2 850:2 851:2 852:2 853:2 854:2 855:2 856:2 857:2 858:2 859:2 860:2 861:2 862:0 863:0 864:0 865:2 866:2 867:2 868:2 869:2 870:2 871:2 872:2 873:2 874:2 875:2 876:4 877:4 878:4 879:4 880:4 881:4 882:4 883:2 884:2 885:2 886:0 887:0 888:0 889:0 890:0 891:0 892:0 893:0 894:0 895:0 896:0 897:0 898:0 899:0 900:0 901:0 902:0 903:0 904:2 905:2 906:2 907:2 908:2 909:2 910:2 911:2 912:2 913:4 914:4 915:4 916:4 917:4 918:4 919:4 920:4 921:4 922:4 923:4 924:4 925:4 926:4 927:2 928:2 929:2 930:4 931:4 932:4 933:0 934:0 935:0 936:0 937:0 938:0 939:0 940:0 941:0 942:0 943:0 944:0 945:0 946:0 947:0 948:0 949:0 950:0 951:0 952:4 953:4 954:4 955:4 956:4 957:4 958:4 959:4 960:4 961:4 962:4 963:4 964:4 965:4 966:4 967:4 968:4 969:2 970:2 971:2 972:2 973:2 974:4 975:4 976:4 977:4 978:4 979:4 980:4 981:4 982:4 983:4 984:4 985:4 986:4 987:4 988:4 989:4 990:4 991:4 992:0 993:4 994:4 995:4 996:4 997:4 998:4 999:4 1000:4 1001:4 1002:4 1003:2 1004:2 1005:4 1006:4 1007:4 1008:4 1009:4 1010:2 1011:2 1012:4 1013:4 1014:4 1015:4 1016:4 1017:4 1018:4 1019:4 1020:4 1021:4 1022:4 1023:4 1024:4 1025:4 1026:4 1027:4 1028:4 1029:4 1030:4 1031:4 1032:4 1033:2 1034:2 1035:2 1036:2 1037:2 1038:2 1039:4 1040:4 1041:4 1042:4 1043:4 1044:4 1045:4 1046:4 1047:4 1048:4 1049:4 1050:4 1051:4 1052:4 1053:4 1054:4 1055:4 1056:4 1057:4 1058:4 1059:4 1060:4 1061:4 1062:4 1063:4 1064:4 1065:4 1066:4 1067:4 1068:0 1069:4 1070:4 1071:4 1072:4 1073:4 1074:4 1075:4 1076:4 1077:4 1078:4 1079:4 1080:4 1081:4 1082:4 1083:4 1084:4 1085:4 1086:4 1087:4 1088:0 1089:4 1090:4 1091:4 1092:4 1093:4 1094:4 1095:4 1096:4 1097:0 1098:4 1099:4 1100:4 1101:4 1102:2 1103:2 1104:2 1105:2 1106:2 1107:2 1108:2 1109:0 1110:0 1111:0 1112:2 1113:2 1114:2 1115:0 1116:0 1117:0 1118:0 1119:0 1120:0 1121:0 1122:0 1123:0 1124:0 1125:2 1126:2 1127:2 1128:2 1129:4 1130:4 1131:4 1132:4 1133:4 1134:4 1135:4 1136:4 1137:4 1138:4 1139:4 1140:4 1141:4 1142:4 1143:4 1144:4 1145:4 1146:4 1147:2 1148:2 1149:4 1150:4 1151:4 1152:4 1153:4 1154:4 1155:4 1156:4 1157:4 1158:4 1159:4 1160:2 1161:2 1162:2 1163:2 1164:2 1165:2 1166:2 1167:2 1168:2 1169:2 1170:2 1171:4 1172:4 1173:4 1174:4 1175:4 1176:4 1177:4 1178:4 1179:4 1180:4 1181:4 1182:4 1183:4 1184:4 1185:4 1186:4 1187:4 1188:4 1189:4 1190:4 1191:4 1192:4 1193:4 1194:4 1195:4 1196:4 1197:4 1198:4 1199:4 1200:4 1201:4 1202:4 1203:4 1204:4 1205:4 1206:4 1207:4 1208:4 1209:4 1210:4 1211:4 1212:4 1213:4 1214:4 1215:4 1216:4 1217:4 1218:4 1219:4 1220:4 1221:4 1222:4 1223:4 1224:2 1225:2 1226:2 1227:2 1228:4 1229:4 1230:4 1231:4 1232:2 1233:2 1234:2 1235:2 1236:2 1237:2 1238:2 1239:4 1240:4 1241:4 1242:4 1243:2 1244:2 1245:2 1246:2 1247:2 1248:2 1249:2 1250:2 1251:2 1252:2 1253:2 1254:2 1255:2 1256:2 1257:2 1258:2 1259:2 1260:2 1261:2 1262:2 1263:2 1264:2 1265:2 1266:2 1267:2 1268:2 1269:0 1270:0 1271:0 1272:0 1273:0 1274:0 1275:0 1276:0 1277:0 1278:0 1279:0 1280:0 1281:2 1282:2 1283:2 1284:2 1285:2 1286:0 1287:0 1288:0 1289:2 1290:2 1291:2 1292:2 1293:2 1294:2 1295:2 1296:2 1297:2 1298:2 1299:2 1300:2 1301:2 1302:2 1303:2 1304:2 1305:2 1306:2 1307:2 1308:2 1309:2 1310:2 1311:2 1312:2 1313:2 1314:2 1315:2 1316:2 1317:2 1318:2 1319:2 1320:4 1321:4 1322:4 1323:2 1324:2 1325:2 1326:2 1327:2 1328:2 1329:2 1330:2 1331:2 1332:2 1333:2 1334:2 1335:2 1336:2 1337:2 1338:2 1339:2 1340:2 1341:2 1342:0 1343:2 1344:4 1345:4 1346:4 1347:4 1348:0 1349:0 1350:0 1351:0 1352:0 1353:0 1354:0 1355:0 1356:0 1357:0 1358:0 1359:0 1360:0 1361:0 1362:0 1363:0 1364:0 1365:0 1366:0 1367:0 1368:4 1369:4 1370:4 1371:4 1372:4 1373:4 1374:4 1375:2 1376:2 1377:2 1378:2 1379:2 1380:2 1381:2 1382:2 1383:4 1384:4 1385:4 1386:4 1387:4 1388:4 1389:4 1390:4 1391:4 1392:4 1393:4 1394:4 1395:4 1396:4 1397:4 1398:2 1399:2 1400:2 1401:2 1402:2 1403:2 1404:4 1405:4 1406:4 1407:4 1408:4 1409:4 1410:4 1411:4 1412:4 1413:2 1414:2 1415:2 1416:2 1417:2 1418:2 1419:2 1420:2 1421:4 1422:4 1423:4 1424:4 1425:4 1426:4 1427:4 1428:4 1429:4 1430:4 1431:4 1432:4 1433:4 1434:4 1435:4 1436:4 1437:4 1438:4 1439:4 1440:4 1441:4 1442:4 1443:4 1444:4 1445:4 1446:4 1447:4 1448:4 1449:4 1450:4 1451:4 1452:4 1453:4 1454:4 1455:4 1456:2 1457:2 1458:2 1459:2 1460:2 1461:2 1462:2 1463:2 1464:2 1465:4 1466:4 1467:4 1468:4 1469:4 1470:4 1471:4 1472:4 1473:4 1474:4 1475:4 1476:4 1477:4 1478:4 1479:0 1480:4 1481:0 1482:4 1483:4 1484:4 1485:2 1486:2 1487:2 1488:2 1489:2 1490:0 1491:0 1492:0 1493:0 1494:2 1495:2 1496:4 1497:4 1498:4 1499:4 1500:4 1501:4 1502:4 1503:4 1504:4 1505:4 1506:4 1507:4 1508:4 1509:4 1510:4 1511:4 1512:4 1513:4 1514:4 1515:4 1516:4 1517:4 1518:0 1519:0 1520:0 1521:0 1522:0 1523:0 1524:0 1525:0 1526:0 1527:0 1528:0 1529:0 1530:0 1531:0 1532:0 1533:0 1534:0 1535:0 1536:0 1537:4 1538:4 1539:4 1540:4 1541:4 1542:4 1543:4 1544:4 1545:4 1546:4 1547:4 1548:4 1549:4 1550:4 1551:4 1552:4 1553:4 1554:4 1555:4 1556:4 1557:4 1558:4 1559:4 1560:4 1561:4 1562:4 1563:4 1564:4 1565:4 1566:4 1567:4 1568:4 1569:4 1570:4 1571:4 1572:4 1573:4 1574:4 1575:4 1576:4 1577:4 1578:2 1579:2 1580:2 1581:2 1582:2 1583:2 1584:2 1585:2 1586:2 1587:2 1588:0 1589:0 1590:0 1591:0 1592:0 1593:0 1594:2 1595:2 1596:0 1597:2 1598:2 1599:2 1600:2 1601:2 1602:2 1603:2 1604:2 1605:2 1606:2 1607:2 1608:2 1609:2 1610:2 1611:2 1612:2 1613:2 1614:2 1615:2 1616:2 1617:2 1618:2 1619:2 1620:2 1621:2 1622:2 1623:2 1624:2 1625:2 1626:2 1627:4 1628:4 1629:4 1630:4 1631:4 1632:4 1633:4 1634:4 1635:4 1636:4 1637:4 1638:4 1639:4 1640:4 1641:4 1642:4 1643:2 1644:2 1645:2 1646:4 1647:4 1648:4 1649:4 1650:4 1651:4 1652:4 1653:4 1654:4 1655:4 1656:2 1657:2 1658:2 1659:2 1660:2 1661:2 1662:2 1663:2 1664:2 1665:2 1666:2 1667:2 1668:2 1669:4 1670:4 1671:4 1672:4 1673:4 1674:4 1675:4 1676:4 1677:4 1678:4 1679:4 1680:4 1681:4 1682:4 1683:4 1684:4 1685:4 1686:4 1687:4 1688:4 1689:4 1690:4 1691:4 1692:4 1693:4 1694:4 1695:4 1696:4 1697:4 1698:4 1699:4 1700:4 1701:4 1702:2 1703:2 1704:4 1705:4 1706:4 1707:4 1708:4 1709:4 1710:2 1711:2 1712:2 1713:4 1714:4 1715:0 1716:0 1717:0 1718:0 1719:0 1720:0 1721:0 1722:4 1723:4 1724:4 1725:4 1726:4 1727:4 1728:4 1729:4 1730:4 1731:4 1732:2 1733:2 1734:2 1735:2 1736:2 1737:2 1738:2 1739:2 1740:2 1741:2 1742:2 1743:4 1744:4 1745:4 1746:2 1747:2 1748:2 1749:2 1750:2 1751:2 1752:0 1753:2 1754:2 1755:0 1756:2 1757:2 1758:4 1759:4 1760:4 1761:4 1762:4 1763:4 1764:4 1765:4 1766:4 1767:4 1768:4 1769:4 1770:4 1771:4 1772:4 1773:4 1774:4 1775:4 1776:4 1777:2 1778:2 1779:2 1780:2 1781:2 1782:4 1783:4 1784:4 1785:4 1786:4 1787:4 1788:4 1789:4 1790:4 1791:4 1792:4 1793:4 1794:0 1795:4 1796:4 1797:4 1798:4 1799:4 1800:4 1801:4 1802:4 1803:4 1804:4 1805:4 1806:4 1807:4 1808:4 1809:4 1810:4 1811:4 1812:2 1813:2 1814:2 1815:4 1816:4 1817:4 1818:4 1819:0 1820:0 1821:2 1822:0 1823:0 1824:0 1825:0 1826:0 1827:2 1828:4 1829:4 1830:4 1831:4 1832:4 1833:4 1834:0 1835:0 1836:0 1837:0 1838:4 1839:4 1840:4 1841:4 1842:4 1843:4 1844:4 1845:4 1846:0 1847:0 1848:0 1849:0 1850:0 1851:0 1852:0 1853:0 1854:0 1855:0 1856:0 1857:0 1858:0 1859:0 1860:0 1861:0 1862:0 1863:0 1864:0 1865:0 1866:0 1867:0 1868:0 1869:4 1870:4 1871:4 1872:4 1873:4 1874:4 1875:4 1876:4 1877:2 1878:2 1879:2 1880:2 1881:2 1882:2 1883:2 1884:2 1885:4 1886:4 1887:4 1888:4 1889:4 1890:4 1891:4 1892:4 1893:4 1894:4 1895:4 1896:4 1897:4 1898:4 1899:4 1900:4 1901:4 1902:4 1903:4 1904:2 1905:2 1906:2 1907:2 1908:2 1909:2 1910:2 1911:2 1912:2 1913:2 1914:2 1915:4 1916:4 1917:4 1918:0 1919:0 1920:2 1921:2 1922:2 1923:0 1924:0 1925:0 1926:2 1927:2 1928:2 1929:2 1930:2 1931:4 1932:4 1933:4 1934:4 1935:0 1936:0 1937:0 1938:0 1939:4 1940:4 1941:4 1942:4 1943:4 1944:4 1945:4 1946:4 1947:4 1948:4 1949:4 1950:2 1951:2 1952:2 1953:2 1954:2 1955:4 1956:4 1957:4 1958:4 1959:4 1960:4 1961:4 1962:4 1963:4 1964:4 1965:4 1966:4 1967:2 1968:2 1969:4 1970:4 1971:0 1972:0 1973:0 1974:0 1975:0 1976:0 1977:4 1978:4 1979:4 1980:4 1981:4 1982:4 1983:4 1984:4 1985:0 1986:4 1987:4 1988:4 1989:4 1990:4 1991:4 1992:2 1993:2 1994:2 1995:2 1996:2 1997:0 1998:2 1999:2 2000:2 2001:2 2002:2 2003:2 2004:2 2005:2 2006:2 2007:2 2008:2 2009:2 2010:2 2011:2 2012:2 2013:2 2014:2 2015:2 2016:2 2017:4 2018:4 2019:4 2020:4 2021:4 2022:4 2023:4 2024:0 2025:0 2026:0 2027:0 2028:0 2029:0 2030:0 2031:0 2032:0 2033:0 2034:0 2035:0 2036:0 2037:0 2038:0 2039:0 2040:0 2041:0 2042:0 2043:0 2044:0 2045:0 2046:0 2047:0 2048:0 2049:0 2050:0 2051:0 2052:0 2053:0 2054:0 2055:0 2056:0 2057:0 2058:0 2059:0 2060:0 2061:0 2062:0 2063:0 2064:0 2065:0 2066:0 2067:0 2068:0 2069:0 2070:0 2071:0 2072:0 2073:0 2074:0 2075:0 2076:0 2077:0 2078:0 2079:0 2080:0 2081:0 2082:0 2083:0 2084:0 2085:0 2086:0 2087:0 2088:0 2089:0 2090:0 2091:0 2092:0 2093:0 2094:0 2095:0 2096:0 2097:0 2098:0 2099:0 2100:0 2101:0 2102:0 2103:0 2104:0 2105:0 2106:0 2107:0 2108:0 2109:0 2110:0 2111:0 2112:4 2113:4 2114:4 2115:4 2116:4 2117:4 2118:4 2119:4 2120:4 2121:4 2122:4 2123:2 2124:4 2125:4 2126:4 2127:4 2128:4 2129:4 2130:4 2131:4 2132:4 2133:2 2134:2 2135:2 2136:2 2137:2 2138:2 2139:2 2140:2 2141:2 2142:2 2143:2 2144:2 2145:2 2146:2 2147:2 2148:2 2149:2 2150:2 2151:2 2152:2 2153:2 2154:2 2155:2 2156:4 2157:4 2158:4 2159:4 2160:4 2161:4 2162:4 2163:4 2164:4 2165:4 2166:4 2167:4 2168:4 2169:4 2170:4 2171:0 2172:4 2173:4 2174:4 2175:4 2176:4 2177:4 2178:4 2179:4 2180:4 2181:4 2182:4 2183:0 2184:4 2185:4 2186:4 2187:4 2188:4 2189:4 2190:2 2191:2 2192:2 2193:2 2194:2 2195:2 2196:2 2197:2 2198:2 2199:4 2200:4 2201:4 2202:4 2203:0 2204:4 2205:4 2206:4 2207:4 2208:4 2209:4 2210:4 2211:4 2212:4 2213:2 2214:2 2215:2 2216:2 2217:2 2218:2 2219:2 2220:2 2221:2 2222:2 2223:4 2224:4 2225:4 2226:4 2227:4 2228:4 2229:4 2230:4 2231:0 2232:4 2233:4 2234:4 2235:4 2236:4 2237:2 2238:2 2239:2 2240:2 2241:2 2242:2 2243:2 2244:2 2245:2 2246:0 2247:2 2248:2 2249:4 2250:4 2251:2 2252:2 2253:2 2254:2 2255:2 2256:2 2257:2 2258:2 2259:0 2260:0 2261:0 2262:0 2263:2 2264:2 2265:2 2266:2 2267:2 2268:2 2269:2 2270:2 2271:2 2272:2 2273:2 2274:0 2275:4 2276:4 2277:4 2278:4 2279:4 2280:4 2281:4 2282:4 2283:4 2284:4 2285:4 2286:4 2287:2 2288:2 2289:2 2290:2 2291:2 2292:2 2293:2 2294:4 2295:4 2296:4 2297:4 2298:2 2299:4 2300:4 2301:4 2302:4 2303:4 2304:4 2305:4 2306:4 2307:4 2308:4 2309:2 2310:2 2311:2 2312:2 2313:2 2314:2 2315:2 2316:2 2317:2 2318:2 2319:2 2320:2 2321:2 2322:2 2323:2 2324:2 2325:2 2326:2 2327:2 2328:2 2329:4 2330:4 2331:4 2332:4 2333:4 2334:4 2335:4 2336:4 2337:4 2338:4 2339:4 2340:4 2341:4 2342:4 2343:4 2344:4 2345:4 2346:0 2347:4 2348:4 2349:4 2350:4 2351:4 2352:4 2353:4 2354:4 2355:4 2356:2 2357:2 2358:2 2359:2 2360:2 2361:2 2362:2 2363:2 2364:2 2365:4 2366:4 2367:4 2368:4 2369:4 2370:2 2371:2 2372:2 2373:2 2374:2 2375:2 2376:2 2377:2 2378:2 2379:2 2380:2 2381:2 2382:2 2383:2 2384:2 2385:2 2386:2 2387:2 2388:2 2389:2 2390:2 2391:2 2392:2 2393:2 2394:2 2395:2 2396:2 2397:2 2398:2 2399:2 2400:2 2401:2 2402:2 2403:2 2404:2 2405:2 2406:2 2407:2 2408:2 2409:2 2410:2 2411:2 2412:2 2413:2 2414:2 2415:2 2416:2 2417:2 2418:2 2419:2 2420:4 2421:4 2422:2 2423:2 2424:0 2425:2 2426:2 2427:0 2428:2 2429:2 2430:2 2431:2 2432:2 2433:2 2434:2 2435:2 2436:2 2437:2 2438:2 2439:2 2440:2 2441:2 2442:2 2443:2 2444:2 2445:2 2446:2 2447:2 2448:2 2449:2 2450:2 2451:2 2452:2 2453:2 2454:2 2455:0 2456:4 2457:4 2458:4 2459:4 2460:4 2461:4 2462:2 2463:0 2464:0 2465:2 2466:2 2467:2 2468:2 2469:2 2470:0 2471:2 2472:2 2473:2 2474:2 2475:2 2476:2 2477:2 2478:2 2479:2 2480:2 2481:2 2482:2 2483:2 2484:2 2485:2 2486:2 2487:2 2488:2 2489:2 2490:2 2491:2 2492:2 2493:2 2494:2 2495:2 2496:2 2497:0 2498:2 2499:2 2500:2 2501:2 2502:2 2503:2 2504:2 2505:2 2506:2 2507:2 2508:2 2509:2 2510:2 2511:2 2512:0 2513:2 2514:2 2515:2 2516:2 2517:2 2518:2 2519:0 2520:2 2521:2 2522:2 2523:2 2524:2 2525:0 2526:2 2527:2 2528:2 2529:2 2530:2 2531:2 2532:2 2533:0 2534:2 2535:2 2536:2 2537:2 2538:0 2539:0 2540:0 2541:0 2542:2 2543:2 2544:0 2545:0 2546:0 2547:0 2548:2 2549:2 2550:2 2551:2 2552:2 2553:2 2554:2 2555:2 2556:2 2557:0 2558:2 2559:2 2560:2 2561:2 2562:2 2563:2 2564:2 2565:2 2566:2 2567:2 2568:0 2569:0 2570:2 2571:0 2572:2 2573:2 2574:2 2575:2 2576:2 2577:2 2578:2 2579:2 2580:2 2581:2 2582:0 2583:0 2584:0 2585:0 2586:2 2587:2 2588:2 2589:2 2590:2 2591:0 2592:0 2593:0 2594:0 2595:2 2596:0 2597:2 2598:2 2599:2 2600:2 2601:2 2602:0 2603:2 2604:0 2605:2 2606:2 2607:2 2608:2 2609:2 2610:0 2611:0 2612:2 2613:2 2614:2 2615:2 2616:2 2617:0 2618:0 2619:0 2620:2 2621:2 2622:2 2623:2 2624:2 2625:0 2626:2 2627:2 2628:2 2629:2 2630:2 2631:0 2632:0 2633:0 2634:2 2635:2 2636:2 2637:2 2638:2 2639:0 2640:2 2641:2 2642:2 2643:2 2644:2 2645:2 2646:0 2647:0 2648:2 2649:2 2650:2 2651:2 2652:2 2653:2 2654:2 2655:0 2656:0 2657:2 2658:2 2659:0 2660:2 2661:2 2662:2 2663:2 2664:2 2665:0 2666:2 2667:2 2668:2 2669:2 2670:2 2671:0 2672:2 2673:0 2674:2 2675:2 2676:2 2677:2 2678:2 2679:2 2680:0 2681:0 2682:2 2683:2 2684:2 2685:2 2686:2 2687:2 2688:2 2689:2 2690:0 2691:2 2692:2 2693:2 2694:2 2695:0 2696:2 2697:2 2698:0 2699:2 2700:2 2701:2 2702:2 2703:2 2704:2 2705:2 2706:0 2707:2 2708:2 2709:2 2710:2 2711:2 2712:2 2713:2 2714:0 2715:0 2716:2 2717:2 2718:2 2719:2 2720:2 2721:2 2722:0 2723:0 2724:2 2725:2 2726:2 2727:2 2728:2 2729:2 2730:2 2731:0 2732:0 2733:2 2734:2 2735:2 2736:2 2737:2 2738:2 2739:0 2740:0 2741:2 2742:2 2743:2 2744:2 2745:0 2746:0 2747:0 2748:0 2749:0 2750:2 2751:2 2752:2 2753:0 2754:0 2755:0 2756:0 2757:2 2758:2 2759:2 2760:2 2761:2 2762:2 2763:0 2764:0 2765:2 2766:2 2767:2 2768:2 2769:0 2770:0 2771:0 2772:0 2773:2 2774:2 2775:2 2776:2 2777:0 2778:0 2779:0 2780:0 2781:2 2782:2 2783:2 2784:2 2785:2 2786:2 2787:0 2788:0 2789:2 2790:2 2791:2 2792:2 2793:2 2794:2 2795:0 2796:0 2797:2 2798:2 2799:2 2800:2 2801:2 2802:2 2803:0 2804:0 2805:2 2806:2 2807:2 2808:2 2809:2 2810:2 2811:0 2812:2 2813:2 2814:2 2815:2 2816:2 2817:2 2818:0 2819:0 2820:2 2821:2 2822:2 2823:2 2824:2 2825:0 2826:0 2827:2 2828:2 2829:2 2830:2 2831:2 2832:2 2833:2 2834:0 2835:2 2836:2 2837:2 2838:2 2839:2 2840:2 2841:0 2842:0 2843:2 2844:2 2845:2 2846:2 2847:2 2848:2 2849:0 2850:0 2851:2 2852:2 2853:2 2854:2 2855:2 2856:2 2857:2 2858:0 2859:2 2860:2 2861:2 2862:2 2863:2 2864:2 2865:0 2866:2 2867:2 2868:2 2869:2 2870:2 2871:2 2872:0 2873:2 2874:2 2875:2 2876:2 2877:2 2878:0 2879:2 2880:2 2881:2 2882:2 2883:2 2884:0 2885:2 2886:2 2887:2 2888:2 2889:2 2890:2 2891:0 2892:4 2893:4 2894:4 2895:4 2896:4 2897:0 2898:4 2899:4 2900:4 2901:4 2902:4 2903:4 2904:2 2905:4 2906:4 2907:4 2908:4 2909:4 2910:4 2911:2 2912:2 2913:4 2914:4 2915:4 2916:4 2917:4 2918:4 2919:4 2920:4 2921:4 2922:4 2923:4 2924:4 2925:4 2926:4 2927:4 2928:4 2929:2 2930:2 2931:4 2932:4 2933:4 2934:4 2935:4 2936:4 2937:4 2938:4 2939:4 2940:4 2941:4 2942:4 2943:2 2944:2 2945:2 2946:2 2947:2 2948:2 2949:2 2950:2 2951:2 2952:2 2953:2 2954:2 2955:2 2956:2 2957:2 2958:2 2959:2 2960:2 2961:2 2962:2 2963:2 2964:2 2965:2 2966:2 2967:2 2968:2 2969:0 2970:2 2971:2 2972:2 2973:2 2974:2 2975:2 2976:2 2977:2 2978:2 2979:2 2980:2 2981:2 2982:2 2983:2 2984:2 2985:2 2986:4 2987:4 2988:4 2989:4 2990:4 2991:4 2992:4 2993:4 2994:4 2995:4 2996:0 2997:0 2998:4 2999:0 3000:0 3001:0 3002:0 3003:4 3004:2 3005:2 3006:0 3007:0 3008:0 3009:0 3010:0 3011:0 3012:0 3013:0 3014:0 #
